783 100
topping -0.65282387 0.56103873 0.14232531 -0.12019941 0.083547756 0.13710764 -0.469706 -0.009179078 -0.10164011 -0.23882353 0.039965924 0.76493126 0.352761 -0.42933714 0.09593502 0.20725653 -0.49643815 -0.6346101 0.24366868 0.34175497 -0.5276637 0.08031367 -0.009091106 0.18932892 0.42068145 -0.08259068 0.077923745 0.03318259 -0.23468748 -0.54070973 -0.2696301 0.12404694 -1.0082077 0.13854651 0.39900932 -0.24060743 0.8147162 0.11672297 -0.612139 0.18878295 -0.0031372604 0.0709719 0.017010476 -0.30248928 -0.5360205 -0.32429442 0.0306215 0.35076755 0.5588766 -0.5097446 0.3985434 -0.39248946 -0.122594714 -0.38880754 -0.311975 -0.5467566 -0.01017217 -0.37690064 -0.054221768 0.10254198 1.0514039 0.20457378 -0.10041265 0.43110505 0.2974598 0.15915842 -0.14803182 -0.67212474 -0.37069595 -0.3363711 0.10697716 -0.38769522 -0.048235044 -0.7535634 0.42105675 -0.35245186 0.30274808 -0.3939762 0.502542 -0.39215967 0.2267299 -0.19777837 -0.5779048 0.16121799 0.11369378 0.37928808 -0.60983413 0.05199884 0.20382668 0.40424275 -0.047168385 0.43996385 0.34696978 0.28647047 0.34417215 0.033511538 -0.28931388 -0.14744185 0.076439835 -0.51255053
of -0.41260046 0.5288356 0.25170475 -0.15990648 -0.1347432 0.3362197 -0.29621154 0.26209077 -0.13001738 -0.4975646 -0.23450637 1.1703699 0.23976393 -0.40681627 0.17175981 -0.04206189 -0.28801286 -0.22378077 0.067928016 0.1632175 -0.28041995 0.11052153 -0.32251254 -0.06726358 0.21024285 -0.023685884 0.04537689 0.013237099 -0.25543875 0.06898194 -0.29064584 0.17463621 -0.71690786 0.061228395 0.45685297 -0.39901474 0.9588214 -0.02724366 -0.68022037 0.3953042 0.37225413 0.14946552 0.048253793 -0.098061554 -0.122147344 -0.13139239 -0.06481271 0.14434457 0.18138006 -0.4044752 0.4791675 0.17814967 -0.19589455 -0.13511631 -0.12949863 -0.22588912 -0.07223828 -0.3942863 -0.14243332 -0.0059906 0.79803586 0.21232538 0.014196101 0.1142177 0.31977773 0.25943494 0.048467647 -0.6907862 -0.51820314 -0.21472843 0.122793645 -0.17632619 -0.19326629 -0.54947436 0.13580751 -0.10254703 0.026866173 -0.8800122 0.3101916 -0.044625554 -0.084796146 0.0053170845 -0.38462752 -0.011998157 -0.32988688 0.4946687 -1.046508 -0.09338288 0.34220225 0.11880775 0.29228434 1.0346905 0.46003032 0.41587266 0.29618275 -0.037389804 -0.26342458 -0.028785117 -0.14710566 -0.31756893
has -0.72357875 0.43431428 0.25445446 0.17424794 -0.20064932 0.38933924 -0.2240342 0.43342182 -0.30995727 -0.46072727 0.1325831 1.0564768 0.021714147 0.034885164 0.30889615 -0.11664168 -0.41849703 -0.35858425 0.19603373 0.5000415 -0.39475593 -0.122635506 -0.19779411 -0.13662761 0.57089293 -0.19674525 0.47096115 -0.020024015 -0.023924837 -0.16131878 -0.216527 0.34074458 -0.82721066 0.07917871 0.32888854 -0.34926772 0.70633423 0.16402364 -0.5728834 0.07699841 -0.017465115 0.24414368 -0.25841272 0.15852667 -0.21753438 -0.42138913 0.15719476 0.08978747 0.1498748 -0.38415277 0.039071105 0.087988354 -0.000504844 -0.2646056 0.045099963 -0.39944923 0.010497074 -0.1386401 -0.18427806 0.36554787 0.7496658 0.25500765 -0.09286994 0.17447235 0.69344926 -0.07565213 0.04355789 -0.5337533 -0.43761367 0.062717214 0.27498874 -0.41539878 -0.4995345 -0.24035856 0.29095978 -0.1972463 0.22587934 -0.5629833 0.3675724 -0.8324093 -0.21322188 -0.04401085 -0.6506671 -0.06887424 -0.10339143 0.62194115 -0.9831876 -0.09026783 0.17157531 0.33216006 0.54680824 0.47902676 0.5021116 0.39844868 0.2565886 -0.00217209 -0.22474667 -0.22551444 -0.15076038 -0.5537055
pizza -0.6176685 0.87574065 0.0843877 0.18115887 -0.15625906 0.0062944805 -0.0615485 0.2646941 -0.18275301 -0.50085515 -0.18373626 0.68280977 -0.098229125 -0.13754071 0.017913576 0.13173856 0.07023756 -0.22172378 0.29135492 0.5748047 -0.13705905 -0.48190364 0.15713125 0.33638257 0.09495215 -0.30025974 0.041660417 0.055164065 -0.3020469 0.08130694 -0.38912764 -0.17505479 -0.6628681 0.032520898 0.3387069 -0.22346318 0.84655553 0.006647788 -0.7262893 0.49257708 0.3325218 -0.009096142 0.4434932 -0.22670709 -0.17952049 -0.48219103 0.1149777 0.6431579 0.22402199 -0.59313107 -0.07455259 -0.24409321 -0.29685614 -0.34017915 0.09162945 -0.35324892 -0.13847303 -0.093537904 0.10210388 0.20697281 0.95152706 0.0010755677 0.02046496 0.18130453 0.3382167 0.080932245 -0.03692477 -0.76896685 -0.42875513 0.19342475 0.119027145 0.0010270899 -0.26873985 -0.29283053 0.11088689 -0.4688655 0.072745465 -0.06995902 0.24201189 -0.2025054 -0.01239506 0.26809946 -0.30474767 0.039365042 -0.62522733 0.29239357 -1.0972068 0.021321317 0.17939112 0.3361113 0.134595 0.7800495 0.19345996 0.0962305 0.35738936 0.081730746 -0.21228364 -0.028694164 -0.25568223 -0.29444358
subclassof -0.74230117 0.599937 -0.0013624929 0.20392683 0.003744593 0.36088774 -0.55814826 0.00025000234 0.10185722 -0.761166 0.22456895 0.33005774 0.19479556 -0.047116496 0.3241618 0.08608401 -0.2838465 -0.591354 -0.076699495 0.4622922 -0.37386826 -0.15861057 0.05575312 0.056715153 0.40642622 0.0046815365 0.32755035 0.041622583 0.084431395 -0.012984518 -0.26114336 0.19732666 -0.55896044 -0.08297329 0.14216308 -0.42063066 0.86059296 0.4039502 -0.45087227 0.41717386 0.49129042 0.06832682 0.06974978 -0.040530965 -0.015538884 -0.63180095 -0.07711723 -0.03386644 0.45125788 -0.21328974 0.41968992 -0.124584466 -0.28763026 -0.27436608 -0.11121794 -0.20951818 0.042926062 -0.1482889 -0.17481442 -0.0010056271 0.62703127 -0.019619558 0.19111499 0.14679892 0.18335174 0.29582134 -0.06575042 -0.5816188 -0.5486764 0.10776872 0.3859208 0.2738926 -0.58939344 -0.39249465 0.1726382 -0.13020843 0.19982329 -0.71891046 0.441679 -0.1195807 0.16724856 0.36307698 -0.47473595 0.29837072 -0.2915287 0.3202542 -0.8865596 -0.030558646 0.11032241 0.35466394 0.3271763 0.9079699 0.39841792 0.6086542 0.008091724 -0.05644447 -0.27877715 -0.10863242 -0.097452804 -0.34567744
is -0.89050686 0.5210213 0.34631124 -0.09357349 -0.27568793 0.01152079 -0.2866216 0.24814679 -0.051038828 -0.21918014 0.26365378 0.53181124 0.29098246 -0.00873546 0.5383058 -0.2848361 -0.22122377 -0.28653768 0.11359985 0.44083267 -0.6675257 -0.30235642 -0.18170995 0.12043023 0.18766034 -0.12327302 0.31737968 0.05211781 -0.21149676 0.114158124 -0.32281664 0.17618798 -0.7708263 -0.055122733 0.37808818 -0.16172126 0.4757594 -0.2772286 -0.6870093 0.11568511 0.1257051 0.11390154 -0.082492664 -0.37115183 -0.2855491 -0.67826384 -0.062845945 0.44452986 0.25461572 -0.59521604 0.28301382 0.050200045 -0.37190112 -0.34707624 -0.00216974 -0.23160183 0.070092425 -0.6007899 -0.24700724 0.063732184 0.8252097 0.16278999 -0.10586837 0.11685352 0.49994445 0.289912 -0.34706953 -0.7238498 -0.24557018 -0.18155363 0.14620636 -0.3050329 -0.5174499 -0.59277743 0.24044271 -0.15117669 0.12542562 -0.20569059 0.31574482 -0.19413106 -0.14824905 0.24472298 -0.6676041 -0.06044794 -0.016354185 0.7467337 -0.9938407 -0.049594842 0.3923189 0.6208433 0.08431399 0.98325837 0.17049167 0.20240322 0.35312662 0.18103367 0.091993414 0.09362848 -0.15139161 -0.7080585
class -0.3894082 0.86248356 0.27048665 0.22771958 0.10423121 0.376973 -0.3084653 -0.015801817 0.2360514 -0.21446499 0.09133742 0.52933633 0.2653605 0.008550948 0.2727025 -0.14075297 -0.25554094 -0.6182984 -0.22276022 0.30370507 -0.2525233 -0.58348334 -0.5102236 0.08731357 0.29332894 0.123403326 0.3649884 0.011131197 -0.029604303 0.0885814 -0.07571474 0.32683724 -0.5237245 -0.2597446 -0.08757732 -0.021780193 0.34215724 -0.10923319 -0.3912363 0.6630958 0.352395 0.39284652 0.26455274 -0.17415999 -0.13181244 -0.7832351 -0.06837897 -0.019624831 0.6966534 -0.29623735 0.48254022 -0.12665148 -0.44456053 -0.078401834 -0.1886686 -0.38807914 0.32971165 -0.0789617 -0.30370238 -0.15647915 0.45853359 0.20817553 0.046246156 -0.20535988 0.17358516 0.46972224 -0.028554356 -0.75773567 -0.17306554 -0.31292737 0.5486201 -0.1613035 -0.35517275 -0.6117374 -0.12669094 0.006029664 0.010141678 -0.7359357 0.4717802 -0.041579776 0.1007747 0.06449861 -0.36537686 0.28985325 -0.26485717 0.6651208 -0.96397066 0.027448058 0.107507735 0.29696733 0.43678975 0.80599695 0.3697363 0.45457715 -0.24890034 0.0010827977 -0.19387643 0.15727957 -0.31496665 -0.41573653
super -0.33674556 0.25352052 0.0314496 0.17058136 -0.15980718 0.25050887 -0.7062967 0.12773244 0.28230736 -0.4954938 0.20988348 0.28096902 0.20546626 -0.10533992 0.45155603 0.073266 -0.13148719 -0.5825032 -0.05321169 0.38884267 -0.627152 -0.23578115 0.029175483 0.11304378 0.6470416 -0.019706078 0.23387727 -0.10845085 -0.03954252 -0.06187459 -0.18870336 0.26212665 -0.10015905 0.32657036 0.050609693 -0.44319332 0.71013075 0.36597306 -0.4882441 0.4715484 0.5003949 0.47579443 0.21064325 -0.23227747 -0.21315727 -0.42310196 0.00682202 0.15480849 0.1926512 -0.73715806 0.9202444 -0.0123804975 -0.5120933 -0.07020032 -0.08088849 -0.4728824 0.31125155 -0.16689013 -0.574049 -0.13243581 0.23316193 0.19472909 -0.045258768 0.29307693 0.031594805 0.43121108 -0.0398557 -0.863688 -0.48835775 -0.14448117 0.2638419 0.12090654 -0.63888174 -0.114724256 0.20325068 0.041684322 0.14198835 -0.6076628 0.3122326 0.13933589 0.15211488 0.3738517 -0.67362964 0.078450665 -0.0314581 0.5211898 -1.0747844 0.12534209 0.0126284985 0.042320486 0.25908217 0.8940038 0.21649255 0.4070026 0.21153194 -0.079800226 -0.0625652 -0.20167397 -0.51261127 -0.4404667
label -0.65537065 0.60067683 0.24685578 0.03281735 -0.28965938 0.16072802 -0.6349876 0.11446748 0.033499964 -0.34555653 0.24057914 0.7971932 0.07150514 -0.13422881 0.17970328 -0.06840129 -0.48256472 -0.54618466 0.20182571 0.38526052 -0.61579037 -0.37597525 -0.14597633 0.075075336 0.50032175 0.17643294 0.22844903 0.03185682 0.042396545 0.08296953 -0.30764073 0.2087543 -0.46322212 0.07636609 0.4681514 -0.36058745 0.6734157 0.18485266 -0.89064 0.30680567 0.49630472 0.42228583 0.40172225 0.056048863 -0.23800956 -0.4966436 -0.067670666 -0.12756617 0.480661 -0.30700016 0.3708099 0.016643004 -0.3369683 -0.3065993 -0.2700293 -0.37776074 0.06913515 -0.32778248 -0.09951589 0.12309726 0.6954016 0.14730276 0.10095849 0.21102098 0.56456435 0.046034593 0.09489449 -0.470305 -0.3326736 -0.42605004 0.21012962 -0.22303383 -0.55984676 -0.55397296 0.07186874 -0.061527647 -0.06262004 -0.66307193 0.38581637 -0.19189543 0.020855296 0.20076904 -0.5921831 0.28420144 -0.35887074 0.49839088 -1.2441465 -0.19868052 0.1443776 0.32753846 0.21648495 0.84780496 0.3897257 0.6495118 0.15179281 -0.018827854 -0.19349866 -0.26287067 -0.07372928 -0.39849606
preflabel -0.579666 0.5304161 0.3044222 0.0500627 -0.25048667 0.16279438 -0.61750823 0.09159402 0.10510555 -0.2905591 0.24888174 0.74789596 0.1434227 -0.09390035 0.18654235 -0.022584064 -0.38120392 -0.4739162 0.12686408 0.28234398 -0.5564128 -0.20697398 -0.06334637 0.064458184 0.49014586 0.14105271 0.10729802 0.027801596 -0.020050751 0.004837322 -0.30993313 0.24299933 -0.3921539 0.11818978 0.43507692 -0.40148956 0.49196365 0.18902987 -0.75872535 0.33676106 0.40218365 0.30334276 0.24770324 0.08043615 -0.20827267 -0.3671976 -0.07487268 -0.15769553 0.3545008 -0.3415547 0.37624413 0.0737425 -0.27775225 -0.28596157 -0.26103973 -0.34208623 0.00047180918 -0.34282905 -0.04509726 0.12017756 0.6182329 0.05853049 0.12883914 0.21090072 0.51172686 -0.011925142 0.04276688 -0.40936843 -0.3013796 -0.42833737 0.28343457 -0.22525693 -0.46339935 -0.4511299 0.05715079 -0.013773012 -0.04314189 -0.7087474 0.3039636 -0.22325903 0.059529714 0.17395328 -0.5377592 0.19774549 -0.3362134 0.48671445 -1.0369424 -0.25380814 0.15097481 0.2719529 0.19147226 0.8313074 0.33258837 0.55823207 0.16248858 -0.06159511 -0.12609066 -0.21851476 -0.046646502 -0.37134218
http://www.w3.org/2000/01/rdf-schema#subClassOf -0.3694957 0.19969024 0.36632612 0.4039744 -0.4141827 0.9364833 0.41685688 0.30689755 -0.14833778 0.3500712 -0.53546137 0.47686794 0.16979255 0.44669324 -0.072002195 0.23693518 0.04607154 -0.38802624 -0.5560521 -0.33035076 -0.19042917 0.09254245 0.61999196 0.24820939 0.5623106 -0.47660434 -0.6076142 -0.16645953 -0.10372551 -0.64607376 -0.19101341 0.104275934 0.46168554 0.19078705 -0.2459015 -0.04342429 0.052891143 -0.747021 0.5329 -0.050582927 0.22958301 -0.0014758417 -0.30970767 -0.73761743 0.22698393 0.16851969 0.41149253 0.33724436 0.5141325 -0.28987443 0.0059903315 -0.6117002 -0.37282228 0.6030765 0.10110809 -0.41497806 0.3358872 0.19981733 0.25918624 0.2901312 -0.37561446 0.009115576 -0.25762516 0.4136564 0.6986801 -0.11188928 0.3031278 -0.35492292 0.22078726 -0.6716581 0.6678516 -0.3425353 0.33023176 0.2035482 0.28974074 -0.31580642 0.7486507 -0.6080542 -0.51781726 0.6017885 0.31054732 0.27779245 -0.6502294 0.42006993 -0.69023615 -0.27269778 0.7466975 -0.6362452 -0.09748354 0.6297387 -0.21352883 0.5510422 0.3639047 -0.21974753 0.26227668 -1.0585189 0.4771686 0.27009547 -0.44135508 -0.52949345
spiciness -0.71199137 0.19848289 0.410809 0.04598284 -0.3712072 -0.24938272 -1.0545094 0.46004432 0.105203904 -0.74961746 0.16749892 0.6420362 0.18847899 -0.25157112 0.20858555 0.20740807 -0.31394932 -0.73621106 0.12653601 0.24301986 -0.44212657 -0.47414318 -0.3794762 0.030502807 0.79434985 0.1957579 0.16159652 0.035317715 0.42896625 0.12502761 -0.5153451 0.48663956 -0.47612423 0.3893221 0.1076039 -0.6419704 0.79007244 0.13718994 -0.18413982 0.52742374 0.64009297 -0.0244401 0.56266546 -0.11365841 -0.22626187 -0.4254021 -0.056951 0.36397982 0.7926588 0.0020572413 0.16611545 -0.6035788 -0.18155539 0.27383104 -0.19600704 -0.20901597 0.0048603127 -0.2800191 -0.35307857 0.16816093 0.48299915 -0.28258985 -0.07690871 0.045440454 0.5235829 -0.35572308 -0.05023629 -0.4375545 -0.26140475 -0.13068013 0.8439965 0.05455554 -0.37225693 -0.6711545 -0.37121597 0.004611213 0.05520734 -0.63729 -0.013393131 -0.89435 0.14528674 0.33116332 -0.48035222 0.32897538 -0.19541788 0.08094872 -1.0097367 -0.39737564 0.33624443 -0.01759812 0.32414266 0.3838949 -0.10723819 0.52211124 0.35049552 0.041833308 -0.0665383 0.07304934 0.076025404 -0.2057006
http://www.semanticweb.org/owl2vec#superClassOf -0.6252888 0.1355713 0.33819497 0.33999515 -0.263011 0.9405333 0.36598697 0.20575757 0.030345682 0.21027298 -0.47648922 0.45161477 0.18086614 0.49692327 -0.07638378 0.32277456 -0.13732226 -0.5433931 -0.39229086 -0.33277708 -0.14717676 0.14702912 0.55828744 0.2123515 0.6578363 -0.37165642 -0.6571183 -0.03967649 -0.11746381 -0.4092127 -0.24730155 0.10008732 0.42499083 0.10479698 -0.017327745 -0.075403765 0.11906802 -0.66420215 0.48135588 -0.22308859 0.32570297 0.121227354 -0.35671195 -0.54563934 0.28931585 0.003484692 0.65950763 0.17324995 0.5983577 -0.21363065 -0.0076184273 -0.64677155 -0.5209922 0.7053181 0.1205504 -0.7362049 0.30328694 0.16671893 0.28815275 0.3896407 -0.4437545 0.06334354 -0.120140895 0.4396418 0.5013583 -0.4200279 0.19279505 -0.26954326 0.26420897 -0.74524975 0.59139967 -0.3369943 0.20728639 0.03239473 0.23275809 -0.35688007 0.78261125 -0.31169668 -0.5835115 0.5609354 0.38359374 0.25967488 -0.70780927 0.468107 -0.52904373 -0.21541478 0.6741978 -0.552884 -0.017608637 0.59168047 -0.24914493 0.48701218 0.44614342 -0.40612045 0.35129827 -0.93308955 0.3781993 0.30816123 -0.36442572 -0.6963813
http://www.co-ode.org/ontologies/pizza/pizza.owl#hasTopping -0.13976817 0.05460588 0.55003774 0.18185996 -0.03703883 0.6774701 0.036800034 0.08761571 -0.5650363 0.19037208 -0.34458467 -0.30130666 0.5376814 0.84278226 0.4042135 -0.32509664 0.22915553 -0.66081375 -0.61198485 -0.20479247 0.15761688 -0.16680373 0.2781035 0.38849613 0.6402847 -0.9502778 -0.0978949 -0.808509 -0.0776766 -0.7565181 -0.3545161 -0.0070527643 0.20974053 0.21415624 -0.14065328 0.11415476 0.332769 -0.6380419 0.4591529 -0.18932676 -0.18676601 -0.04586709 -0.42770475 -0.44229284 -0.22442332 0.5788882 0.40317953 0.26281044 0.48014647 -0.070090726 -0.345754 -0.28596672 0.080176964 0.09612016 -0.38427597 -0.18403155 0.04960278 0.32190862 -0.1039216 0.3691809 -0.60734147 -0.6077435 -0.42395005 0.24622586 0.7110243 -0.2917529 0.17970458 -0.44319195 0.33048892 -0.25409755 0.84993523 -0.28978518 0.101718046 -0.038761675 0.5660982 0.52266484 0.4864928 -0.55748755 -0.093207166 -0.13135824 0.4474228 0.049546354 -0.85750055 0.59327185 -0.5763599 -0.007027915 0.32706618 -1.1566138 -0.15819322 0.6241407 0.30804688 0.5705563 0.5841677 0.028837817 -0.20813093 -0.6673443 0.1487027 0.2954549 -0.320626 -0.32413793
pizzatopping -0.050834324 0.37072244 0.216107 0.08612451 0.13915326 0.42496914 -0.33425772 0.24290904 0.3017178 -0.011338756 -0.1063676 0.66561157 0.10487066 -0.25904837 0.006169325 0.7363767 -0.1372907 -0.21387818 -0.088693134 0.4065013 -0.41695803 -0.39556634 -0.1255843 -0.103291266 0.31450024 0.19584623 -0.017891116 -0.16759478 -0.15901524 -0.17245 -0.22589588 5.2828473e-05 -0.26650453 0.34680343 -0.012512039 -0.31203935 0.35635585 -0.034006365 -0.37259606 0.6015312 0.49414057 0.18249056 0.2372583 -0.51868045 0.0112344185 -0.66075206 0.020671833 0.3880042 0.7457052 -0.7529793 0.40204376 -0.30932534 -0.50300175 -0.047287688 -0.35623145 -0.38462642 0.36589178 0.04493638 -0.49195978 -0.12828644 0.4365778 0.09837432 -0.3719647 -0.21021384 -0.043301478 0.3193844 0.15523429 -0.68127584 -0.011832787 -0.5712013 0.4461757 0.2914017 -0.4492275 -0.5694167 0.49412325 -0.29762545 0.20557229 -0.66711175 0.16560291 -0.15259966 -0.0030798505 -0.32567182 -0.5087678 0.30983022 -0.16053313 0.6881523 -1.1047626 -0.36186424 -0.16456816 0.29150388 -0.13036856 0.704909 0.11846837 0.33998027 0.29842806 -0.18362778 -0.35161132 -0.14383583 -0.3570242 0.0014632245
http://www.co-ode.org/ontologies/pizza/pizza.owl#isToppingOf -0.3758655 0.03979873 0.021557732 0.23373406 -0.27037457 0.32796386 0.19591737 0.29750428 0.30289084 0.35786247 -0.691885 0.20641656 0.63735026 0.28866598 0.18803102 0.50441515 -0.061288312 -0.6802292 -0.58462334 -0.2525983 0.15236452 0.2164689 -0.13506581 0.038206913 0.63402885 -0.49185666 -0.48158535 -0.36964878 -0.47206274 -0.13077994 -0.55893755 -0.32830256 0.55664766 -0.039215326 0.23106582 -0.38601434 -0.052795358 -1.0015093 0.44254768 0.010383726 0.020192504 -0.3365442 -0.5586723 -0.67394173 0.15732612 0.28130618 0.19295101 0.61522436 0.82348466 -0.30897123 -0.041063078 -0.403133 -0.4515183 0.42848468 0.30152142 -0.31759447 0.82725704 0.054927625 0.04127613 0.6895444 -0.6229419 -0.26465192 -0.49655625 0.4510512 0.779015 0.04111727 0.4949393 -0.17040165 0.2911592 -0.23538536 0.6714556 -0.43915004 0.2851018 0.111949965 0.38236046 -0.23779723 0.71887386 -0.4201327 -0.6274388 0.15106966 0.31709877 -0.16818433 -0.89432174 0.66259915 -0.63365173 -0.041570228 0.41349185 -1.3209201 0.29975268 0.59361607 0.23589697 0.65051347 0.61543006 -0.3654909 0.432011 -1.0089742 0.4349982 0.48485872 -0.109735966 -0.5193621
tomato -0.37295222 0.54451495 0.04669259 0.024489509 -0.22463007 0.6034855 -0.7789098 0.107313804 -0.90383697 -0.9567198 -0.22303605 0.30180606 -0.014417748 0.43980202 -0.020107245 -0.21423754 -0.08142982 -0.22965361 -0.12078363 0.21446638 -0.741021 -0.34105545 0.19847085 0.17052267 0.4314398 0.3956386 0.066298135 0.20719048 -0.7852883 -0.63466346 -0.10657377 0.323129 -1.0639477 0.52914894 0.28397092 0.11967013 0.65517044 -0.05341492 -0.16500507 0.20504789 0.17496492 -0.11673512 0.34272325 -0.09955432 -0.22401413 -0.06938232 -0.2003699 0.5172047 0.54636276 0.077921964 -0.09764246 -0.85418195 -0.92398274 -0.19355947 0.50580335 -0.39497033 0.2880158 0.19586714 0.09985476 0.36406502 1.0790213 -0.06870884 -0.09177059 0.28232366 0.3040991 -0.30344415 -0.119179696 -0.15740402 -0.52847475 -0.11457317 0.28592825 -0.4908268 0.14373212 -0.07792312 0.20433904 0.07876887 -0.0656332 -0.13297424 -0.025691986 -0.50232303 0.1557745 -0.08492678 -0.75301135 0.39752442 0.0024192652 0.36613223 -0.45596352 0.010121928 0.60292214 -0.37057498 0.5119829 0.3551669 0.62314236 -0.34381354 0.4898649 0.45752296 0.010150615 0.061513707 -0.32442486 -0.11992562
http://www.w3.org/2000/01/rdf-schema#label -0.15522853 -0.11744017 0.33174327 0.15440461 -0.35275564 0.6153939 0.1705056 0.28525418 -0.27610797 0.36866665 -0.45426923 0.58533627 0.033084217 0.51478475 0.107707486 0.1746349 0.11392278 -0.13772963 -0.23905125 -0.15860456 -0.15057358 0.08543068 0.6211746 0.2535838 0.35517418 -0.23204564 -0.33788726 -0.16350986 -0.11278503 -0.5028875 -0.42009243 0.14850146 0.35469875 0.4217461 -0.37980697 -0.0021982982 -0.04765031 -0.5739778 0.29238594 0.0738545 0.031285852 -0.04142074 -0.06358813 -0.7126979 0.006674687 0.17749898 0.21154113 0.4484745 0.36508423 -0.095090315 0.038169637 -0.29084566 -0.48492968 0.27489707 0.12985605 -0.19008465 0.22703084 0.13130246 0.11714365 0.0556235 -0.19602019 0.09977412 -0.58605796 0.18532038 0.6013778 0.07868789 0.087508745 -0.26342416 0.10036726 -0.51843894 0.39411455 -0.29719526 0.52955264 0.14544149 0.23609012 -0.30406323 0.39982685 -0.49075726 -0.5262331 0.4785538 0.29333138 -0.002202917 -0.51953506 0.37603903 -0.4529869 -0.16420388 0.45553878 -0.33907264 -0.025669541 0.563583 -0.12626028 0.30465156 0.03450533 -0.107630916 0.26127422 -0.7091984 0.3917718 0.048503302 -0.23678796 -0.28994763
altlabel -0.5864016 0.5827154 -0.18011066 0.07772279 -0.3247868 0.14567484 -0.43800798 -0.17225833 -0.13395223 -0.29060122 0.10735855 0.75974953 0.20302537 0.01802763 -0.012922742 -0.14453888 -0.1569056 -0.3477228 0.07375801 0.19259596 -0.9871844 0.004210811 0.26720023 0.35786 0.48194358 0.19497351 -0.26009658 0.13814454 -0.20073737 -0.28551254 -0.19370966 0.41908604 -0.34306717 0.14764787 0.5375211 -0.37945864 0.54013246 -0.022502024 -0.9540719 0.26118 -0.12283773 0.0016680692 0.26858714 0.08919043 -0.31850195 -0.27588922 -0.22298126 0.03193824 0.45466858 -0.48895624 0.23069756 -0.20808913 -0.45482448 -0.6173971 0.113423556 -0.0795467 0.19446148 -0.31486565 0.15515076 0.19257362 0.9518129 -0.0007884788 0.09992994 0.5808668 0.4481154 -0.35139394 -0.33487916 -0.39834997 -0.3455542 -0.37634838 0.028303921 -0.5373736 0.1362841 -0.47405198 0.093347274 -0.2972468 0.28507093 0.018894447 0.0022724667 -0.5441606 0.13201147 -0.18498465 -0.91786903 0.30791613 0.04955291 0.2172864 -0.7922457 0.04688128 0.16490449 0.6652156 0.25772312 0.75157535 0.63812906 0.08821564 0.6529186 0.022088805 -0.07808778 -0.30821422 -0.25372067 -0.327911
http://www.w3.org/2004/02/skos/core#prefLabel -0.1342513 -0.10511054 0.27327684 0.11848344 -0.32948208 0.64464086 0.23581466 0.30140868 -0.2663311 0.4283805 -0.5040377 0.61204916 0.026026731 0.5670801 0.075304225 0.15301389 0.14823125 -0.149176 -0.2695358 -0.15534748 -0.13898817 0.116546795 0.6411004 0.24459933 0.3531479 -0.29582122 -0.3418268 -0.17265923 -0.14058961 -0.5009985 -0.38521147 0.10740709 0.3709499 0.4398824 -0.38737148 0.032835215 -0.053623244 -0.6053324 0.3188607 0.08535161 0.027050836 -0.032442585 -0.065616 -0.70979 0.027271645 0.21203119 0.14498217 0.41026208 0.3821258 -0.12135274 0.041887533 -0.30409044 -0.45567444 0.2812863 0.15590307 -0.18734188 0.20720436 0.110659964 0.0744057 0.07884662 -0.17273206 0.09742161 -0.5842019 0.15332799 0.6211251 0.11176763 0.12986565 -0.2614629 0.12098016 -0.5475634 0.40154594 -0.2693675 0.5458809 0.1201935 0.23666175 -0.2668642 0.42858198 -0.52329516 -0.49039936 0.5248534 0.3211295 -0.07346724 -0.48505217 0.33689523 -0.44939622 -0.12053358 0.5016422 -0.29061222 -0.022776838 0.5481466 -0.16106313 0.33189246 0.046884183 -0.100605056 0.2542695 -0.7221307 0.35135725 0.04832004 -0.25682658 -0.24947906
tomatotopping -0.34374216 0.6722992 0.10173589 0.106822856 -0.35875395 0.581939 -0.5294002 0.19683792 -0.78753495 -0.7733267 -0.26078 0.7351127 0.084900975 0.34720522 -0.009977363 -0.5080655 -0.26860052 -0.292507 0.0736347 0.18415576 -0.7278039 -0.22605503 0.12719338 0.38768294 0.5400445 0.27368793 0.18800667 0.2477703 -0.7810994 -0.49605215 -0.3070382 0.16451573 -0.8069832 0.43461466 0.42894742 0.10203377 0.5671765 -0.013815204 -0.42783216 0.295612 0.1373169 -0.006273882 0.49798676 0.058596645 -0.44260314 -0.17441455 -0.026848394 0.63851094 0.44752985 -0.29101697 -0.074096985 -0.60412645 -0.9309972 -0.11451785 0.37259266 -0.6404026 0.24114107 0.12698255 0.16574022 0.3448112 1.1957294 0.0823425 -0.056706894 0.2532282 0.42399058 -0.3622284 -0.050938684 -0.29315865 -0.5530467 -0.016665692 -0.0019794868 -0.8119682 0.25976777 -0.05259642 0.09051996 -0.046258707 -0.05343939 -0.16279551 -0.05626928 -0.21986495 0.1032667 -0.05818979 -0.78496003 0.31484827 -0.030608077 0.2410476 -0.5051144 0.16238153 0.8218918 -0.24079075 0.52476174 0.24891199 0.5596834 -0.19279628 0.3671479 0.25423452 0.30127952 0.2093479 -0.24785851 -0.3175565
mozzarella -0.5146942 0.4425863 0.021440312 -0.1642084 -0.21422096 0.1183304 -0.25180942 0.34629205 -0.6848809 -0.8252632 -0.2782567 0.32465208 0.38068923 0.2251093 0.19130614 -0.85455227 -0.10627722 0.06996852 -0.011920741 0.021613965 -0.073825434 0.17036216 0.33549038 0.540303 0.69761366 -0.09497312 0.061442584 0.7459095 -0.5937138 -0.570124 -0.49516302 0.33343092 -0.5249018 0.2925144 0.18960012 -0.12639125 0.5798928 -0.049370203 -0.42637762 0.348276 -0.48682454 0.09194232 -0.028375942 -0.18022121 -0.28724122 -0.2330348 -0.22981665 0.37281683 0.2580687 -0.24098942 -0.26598525 -0.6854008 -0.36142915 -0.48987767 0.244823 -0.2279172 0.32184085 0.025880253 -0.04611221 0.4548448 0.9954084 0.0027116481 0.022215212 0.4244818 0.51850647 0.06368868 0.109929666 -0.20734456 -0.72874737 0.43469372 0.32606298 -0.4224017 0.34322265 0.16212355 0.14005987 -0.16183637 -0.05085385 -0.1617241 0.470192 -0.8240014 0.17376465 -0.08541174 -0.7372695 0.21688882 -0.34937313 0.46375296 -0.23138365 -0.017166974 0.7291997 0.12964866 0.46951145 0.36115593 0.36765864 -0.26473725 0.22289999 0.12372924 -0.22940809 0.1335007 0.13050587 -0.10441645
mozzarellatopping -0.36442405 0.5507186 0.15601288 -0.10945346 -0.5665252 0.1015514 0.022613816 0.50330514 -0.5879349 -0.60021615 -0.32010168 0.58584875 0.4635042 0.21360004 0.082263604 -0.973576 -0.24151248 -0.05258745 0.118635744 -0.08592481 -0.15991642 0.13170505 0.39718267 0.5483263 0.72357076 -0.14969558 0.10132773 0.7338485 -0.7268079 -0.46639398 -0.58524984 0.30115965 -0.45539173 0.31833154 0.28602937 -0.09575052 0.46510446 -0.046303064 -0.6034836 0.43309155 -0.3441763 0.1156791 0.13909078 -0.13090254 -0.5690123 -0.29911566 -0.045911226 0.5303038 0.3600561 -0.49632034 -0.3226492 -0.61094093 -0.6765199 -0.2685447 0.14090507 -0.58359057 0.41595536 -0.019486323 0.008245784 0.33435252 1.215796 0.2685769 0.0035714812 0.30575627 0.5641529 -0.0735047 0.11912275 -0.26469493 -0.8447303 0.4829737 0.26192045 -0.69214714 0.2876007 0.2374964 0.1998638 -0.23036689 -0.14269814 -0.34061047 0.4354786 -0.52605814 0.14295551 -0.059423774 -0.7515466 0.2197619 -0.24126513 0.300057 -0.3321609 0.18463224 1.0107934 -0.0061102794 0.45621714 0.31916764 0.33879617 -0.15383759 0.060002077 0.21707907 0.15235278 0.14580534 0.10416707 -0.18718143
hot -0.04299136 -0.14291856 0.026840966 0.2936991 0.0611328 -0.007963711 -0.09420379 0.16242772 -0.48799217 -0.6710793 -0.52302563 0.5843287 0.47494662 0.15135868 0.26338142 -0.74913013 -0.19745517 -0.60651433 0.010513532 0.6725987 -0.33590353 -0.5517949 -0.4503959 0.54315645 0.47845918 -0.09978967 -0.30245608 -0.16113138 -0.65106076 -0.9170242 -0.56361824 0.306942 -0.4358178 0.07815017 0.23010273 -0.053954702 0.2443328 0.49493408 -0.5991047 0.11649336 0.2560129 0.08216068 0.20620847 -0.10233042 0.5355126 -0.2465039 0.2679548 0.8966943 0.27711144 -0.25154397 0.43026298 -0.055462282 -0.32969907 -0.0474154 0.36146566 -0.56182873 0.27499628 -0.12954347 -0.1937829 -0.12378001 0.00022571035 0.17123866 0.31400073 -0.36489895 0.38217968 -0.24193959 0.19838117 -0.86966926 -0.5113222 -0.5978829 0.3475163 0.39369705 -0.28427568 -0.42271444 0.38616928 0.5099979 0.20474477 -0.86078733 0.5510219 -0.5808987 -0.4945213 -0.11691672 0.15329555 -0.2765049 -0.93345803 0.6028281 0.1387892 -0.08967937 0.557246 0.65007746 -0.027704015 0.39967293 0.40023643 -0.08867084 0.33995605 -0.32848346 0.38393095 -0.16814278 0.022267606 0.18828937
http://www.co-ode.org/ontologies/pizza/pizza.owl#PizzaTopping -0.53393835 0.43908486 0.00831387 -0.04327451 -0.18986197 0.38136697 0.23826283 0.050849553 -0.43381867 -0.53675324 -0.5038085 0.16202556 0.2947142 0.1463728 0.09167289 -0.13210379 0.2522199 -0.3346101 -1.0112083 -0.27722478 -0.5139175 0.17178199 0.1091993 0.46619657 0.13991876 -0.3237408 -0.4228309 -0.06355021 0.38019574 -0.8947839 -0.31075457 0.16082421 0.07566423 0.123130016 -0.15982264 -0.10554677 -0.070721634 -0.57358384 0.42409116 -0.14673337 -0.07768758 -0.06748734 -0.3489088 -1.1252891 0.22263573 0.24302739 0.033193283 0.10593228 0.38519147 -0.37740198 0.4058317 -0.24957517 -0.21239825 -0.17734711 0.2702132 0.14657469 0.21861036 -0.060702644 0.38117883 -0.40894318 -0.5077073 -0.40515634 -0.08194226 0.29228002 0.6903438 0.085564405 0.030180335 -0.27418616 -0.24600637 -0.8418089 0.6546396 -0.11832298 0.14791982 -0.09908003 -0.09545994 -0.089319356 0.31545663 -0.17898992 -0.9387784 0.02842385 0.5089947 0.3973923 -0.8820173 0.22170883 -0.616229 0.076997735 -0.21450937 -0.612405 -0.17712697 0.70503134 -0.099294685 0.8023748 0.49922827 -0.06831772 0.39714584 -0.9834154 0.17872652 0.34047934 -0.7646533 -0.14057285
pepper -0.21663046 -0.5558977 0.20513013 -0.68680066 -0.4594372 -0.11202428 -0.17462581 0.4627068 -0.72907084 -0.8337053 -0.38756755 0.8616975 0.5519083 0.65417147 -0.23409799 0.3995245 -0.31709078 -0.7060277 -0.63769126 0.4504929 -0.18275066 -0.61673504 -0.23210676 0.0102141965 0.39804348 -0.31760135 -0.17614514 0.19046505 -0.62790376 -0.39423293 -0.120777704 0.9064568 -0.121822305 -0.08454701 0.46273378 0.2711172 0.57192916 0.16679105 -0.3052786 0.34584045 -0.058354177 0.91761076 0.6497669 -0.32125983 0.30455077 -0.62790966 0.2303788 0.47534052 0.80955654 -0.67782193 0.3540028 -0.15308167 -0.44102204 -0.20410015 0.7984076 -0.916718 0.9764656 0.07188331 -1.1135619 -0.40056112 0.43829757 -0.023803294 0.08639384 0.058884345 0.4762811 -0.12235007 0.6382935 -0.10801699 -0.847267 0.021184474 0.8778839 0.25798988 0.09174622 -0.30338243 0.38500312 0.29083404 -0.1721773 -0.36760545 0.5434963 -0.10660033 -0.14034353 -0.33251473 -0.4065449 0.2436427 -0.640885 0.48599505 -0.43641618 0.2155816 1.177581 0.23990099 -0.015931757 0.1171366 0.62515146 -0.51741457 0.36568207 -0.27831644 0.238607 -0.15398347 0.16622885 -0.054947745
american 0.49935383 -0.1825595 0.29513332 -0.06996948 -0.07904217 0.4219986 0.43513396 0.383261 -0.71068186 -0.82211626 -0.033038374 0.9778409 -0.039097987 0.3960864 0.27502096 -0.6618488 0.24975033 -0.3949923 -0.25786838 0.7412851 -0.03255039 -0.36794278 -0.20664291 0.66384894 0.43602628 -0.07659795 -0.17613006 0.05854772 -0.13036238 -0.8915893 -0.14352983 0.41703302 -0.028951133 -0.27013895 -0.07245843 -0.7599497 0.38908902 0.57968074 -0.44861886 0.43988103 0.10520383 0.26975766 0.26062602 -0.58006877 0.34536412 -0.45772445 0.29157385 1.1604637 0.7821722 -0.44100916 0.4217292 0.061126456 -0.281516 -0.14963682 0.6741593 -0.20533596 0.23040459 -0.36259726 -0.32247034 -0.29209128 0.13008446 0.50241214 -0.44288346 0.02484278 0.18266712 -0.06759549 0.14329259 -0.5324923 -0.65231526 -0.11985437 0.9260506 0.28798452 0.4027883 -0.64051723 0.12708086 0.62961423 -0.037509676 -0.37551075 0.08959039 -0.7869596 -0.12117296 -0.54996115 0.06824686 0.12952226 -0.41959786 0.09291645 -0.009133375 -0.03406137 0.25537878 0.77533334 0.14714354 0.4117566 0.27209607 -0.16687071 0.81600094 -0.57623917 0.15332049 -0.25737673 -0.10877828 0.015890392
http://www.co-ode.org/ontologies/pizza/pizza.owl#Pizza -0.28666392 0.49215832 -0.05010716 0.4474698 -1.0848035 0.50402904 0.6573455 0.67730576 -0.59786034 0.21131296 -0.52850616 0.0006173744 0.844508 0.9252854 -0.17263785 -0.36456037 0.08631189 -0.9188501 -0.23126362 -0.51178205 -0.09467279 -0.12995471 0.64511544 0.09805577 0.5169246 -0.46185198 -0.52405465 -0.7697406 -0.04968946 -0.35172653 -0.18040727 0.010556472 0.60965204 -0.2981931 0.020208599 -0.7589208 0.3289384 -0.60007006 0.19362813 -0.11116562 -0.2675736 -0.7947144 -0.2433219 -0.43496993 -0.20593871 -0.19313355 0.2184775 1.01299 0.35537168 -0.09684189 -0.41811892 -0.12962933 -0.21172948 0.45841876 0.12005629 -0.34135482 0.9760514 0.48674554 -0.06965272 0.36159298 -0.0008190059 -0.056652255 -0.2380831 0.41478476 0.40409794 0.15016373 0.39512128 -0.31978908 0.058193486 0.4502412 0.79502755 -0.55247164 -0.25531998 0.1040205 0.00045991078 -0.23507942 0.24352114 -0.59260756 0.18283316 -0.106633306 -0.56068367 0.33211568 -0.40361965 0.17187163 -0.4817107 -0.5800471 0.21699412 -0.96625435 -0.07462223 0.4206228 0.2039288 -0.16207749 0.10396051 -0.086159386 -0.4132313 -0.008840874 0.77191985 0.49020544 -0.03176819 -0.29647753
four 0.09825284 0.65128946 0.5047267 -0.27415588 -0.8109177 0.78193957 -0.5367045 0.29434276 -0.112748384 -0.8917413 -0.14103115 0.73771536 -0.31937078 0.6895968 0.3843653 -1.0904528 0.01727908 -0.0542512 -0.4339168 0.68361855 0.25841746 0.504069 -0.31978 0.6979463 0.46759865 0.21389326 -0.0321055 0.48959357 -0.085073404 -0.6237572 0.08368192 0.32155368 -0.5937582 0.25301263 -0.10548801 -0.4533529 0.53300136 0.5586878 -0.38801646 0.69811916 0.25649893 0.104589686 0.25692505 -0.677663 -0.23711416 -0.3375227 0.38361907 0.59594357 0.23110583 -0.435279 0.049871024 -0.4321505 -0.58692944 -0.8764397 0.20432653 -0.5483467 0.13753003 0.029415285 0.3389002 0.33106214 0.104962856 0.61857355 0.0035538808 0.3458191 -0.036263213 -0.488702 -0.23763923 -1.0937022 0.38548213 -0.46425754 0.4966491 0.35964596 0.4009165 -0.48300827 -0.10208477 0.10258081 0.3072198 0.009576077 0.50436884 -0.15497307 -0.21486524 -0.51997334 -0.7136638 -0.041061927 -0.2583583 0.12534611 0.04405893 -0.96245664 -0.3641754 0.5442804 -0.017905494 0.800877 0.11560364 0.7046403 0.18902121 -0.20693693 0.21578382 0.1181401 0.39719704 -0.6905734
giardiniera 0.022330763 0.6018097 0.85213685 -0.31434014 -0.5284345 0.49959382 -0.4068359 1.018751 -0.6952635 -0.71037614 -0.6307878 0.7245289 0.22592255 0.26270613 0.53459543 -0.52270776 0.66474724 -0.54307884 0.02846836 0.7430633 -0.35894093 -0.2178595 -0.11394363 0.49542162 0.5260003 -0.018044453 -0.43841478 0.18973273 -1.0388906 -0.38704163 -0.027861899 0.6876652 -0.68719965 0.54972994 0.10961864 -0.49682558 -0.052965842 -0.12712127 -0.0888659 0.32223707 0.26691234 0.23323688 0.27810046 -0.22941059 -0.09273379 0.06089829 0.34218886 0.6765114 0.8630357 0.038355432 0.18590434 -0.35727063 0.16991009 -0.11539236 0.03106439 -0.41152972 0.040173277 0.49889103 -0.23967782 -0.22158268 0.113676034 0.4532188 0.11643671 0.022882525 -0.118053496 -0.2157876 -0.52871776 -0.42718545 0.60586077 -0.33049303 0.79382557 0.29102498 -0.49788016 0.2550242 0.70570576 -0.06774538 0.02724656 -0.22696826 -0.14059938 -0.15019909 0.8370612 -0.14647557 -0.44203204 0.8077385 0.15275252 0.4506232 -0.66636986 -0.44627136 -0.41760066 0.25597027 -0.25508025 0.6676214 0.36086324 0.15125158 0.5992644 -0.4224954 -0.0825804 -0.37861297 -0.118249804 -0.035856932
cajun -0.25373614 0.09803305 0.14730157 -0.6346857 -0.39160988 0.21964195 -0.12036857 0.5979398 -0.47455996 -0.6969929 -0.9210236 0.72619385 -0.11285444 0.7451896 0.38650668 0.24485047 -0.29827803 -0.85145855 -0.1131254 0.48744375 -0.15628663 -0.3312816 -0.19943535 -0.15037405 0.48575953 -0.4804402 -0.27017522 0.3735245 -0.3709331 -0.0074761063 -0.2236185 -0.06927214 -0.08048736 -0.8543063 -0.34579954 -0.026343733 1.0579047 0.18980952 -0.26607507 -0.060678635 0.047673304 0.18085104 0.31724614 -0.21089335 -0.5193495 -0.4666103 0.27703872 0.68579143 0.54707724 0.09350919 0.6487733 -0.09889177 0.1845209 0.14091332 -0.07751605 -0.44670284 0.6660691 -0.20493764 -0.47673675 -0.28806385 0.07092489 0.22650906 0.24832958 -0.036120437 0.34773076 0.402187 0.16454016 -0.1786466 -0.75423265 -0.6103304 0.2034877 0.31625947 -0.30166683 -0.14077275 0.49811637 -0.09350594 -0.12524624 -0.23518415 -0.20557857 -0.46205086 0.41138834 -0.12272031 -0.53971165 0.36045706 -0.39709094 0.33755225 -0.57689774 0.031944927 0.09371292 0.43118238 -0.28791687 -0.029940717 1.0762272 -0.3405242 0.7044611 -0.004727303 -0.19338402 -0.09021998 0.17706192 -0.8076591
veneziana -0.038217343 0.43898472 -0.899253 -0.30679768 -0.47241005 0.6766393 -0.021859074 0.40297025 -0.14416257 -0.79200447 -0.5573034 1.1915014 0.2643635 0.096565396 0.96003866 -0.48670214 0.0033061462 -0.4845257 0.19170313 0.82142824 0.40497106 -0.114403024 0.11857892 0.7321216 0.26762095 0.06967118 0.14078937 0.61168724 -0.37304103 -0.27533624 -0.18497606 0.10022014 -0.6100162 -0.6698909 -0.108793005 -0.872466 -0.08104421 -0.38099968 -0.0095388265 0.87066895 0.18882933 -0.07775216 -0.16158392 -0.45844078 -0.429174 0.08400556 -0.17839609 0.62181985 0.6647138 0.1158706 0.55960655 -0.40834737 -0.37112856 0.10864605 -0.6705895 -0.24969572 0.53024715 -0.25565735 -0.28932238 0.52085686 -0.34439725 0.2289994 -0.051092155 0.42386055 -0.09128892 -0.08644727 0.014385512 -0.88580406 -0.16242065 -0.54517424 0.43021163 0.27711576 -0.008831083 0.29002377 0.026280154 0.19454569 -0.023291465 -0.4020332 -0.010689536 -0.5316151 0.5417161 -0.17795284 -0.37995103 -0.19043018 -0.013682416 0.7759496 -0.28001705 -0.5686719 -0.38628682 0.73141676 -0.46236518 0.47550142 0.35488626 -0.24593109 0.5151623 -0.21706004 -0.5277849 0.21314466 -0.12461462 -0.24100175
base -0.036046065 0.84335667 0.04968465 -0.22205612 -0.13422917 0.2926213 -0.06055306 0.36325172 -0.7131407 -0.2653121 0.13469917 0.12322611 -0.015387818 0.6608135 -0.04445508 -0.64494896 -0.1680496 -0.78010637 0.023735357 0.043272674 -0.3049322 -0.70938957 0.9195845 0.45707476 0.2316597 -0.07243259 -0.09306958 -0.2277083 -0.47210842 -0.26715884 -0.3830945 0.34875175 -0.23319553 -0.3297781 0.3556909 -0.35064858 0.4866207 0.03973582 -0.5722147 0.036702633 -0.0005244042 -0.043340262 0.64706826 -0.13660672 -0.100635715 -0.26057056 0.5280594 0.21944143 0.16526216 -0.5455598 0.0018724726 -0.22253078 -0.50076395 -0.5101915 -0.53264594 -0.93569076 -0.08689381 0.061187208 0.2704271 0.8076594 1.0343896 -0.12111471 0.22355956 0.7374647 0.51482254 -0.10528902 0.4051619 -0.58189 -0.67036515 0.40391636 0.05216752 -0.1573644 -0.04512844 -0.4118058 -0.00012187532 0.19745025 -0.7175159 -0.7255082 0.7738532 -0.011227323 -0.58877987 0.37294555 -0.50260353 -0.09181048 -0.3631307 0.08281368 -0.8942222 -0.07937708 0.06982371 0.10208159 0.25594562 0.30538043 -0.14430542 0.12104775 0.009315408 0.17023578 -0.40374893 0.090639465 -0.15617739 -0.33191088
http://www.co-ode.org/ontologies/pizza/pizza.owl#TomatoTopping -0.56790066 -0.117909804 -0.016426355 0.11727148 -0.6651132 0.46415707 -0.0944879 0.32395694 -0.8266098 0.24102 -0.63076663 0.07282203 0.6441205 0.96778584 0.40130237 0.2464066 0.10156298 -0.8671087 -0.37818003 -0.52687097 0.25702867 0.60682184 0.60350865 0.3671312 0.6058535 -0.2304031 -0.47659495 -0.38845548 0.03420095 -0.1715957 -0.17778867 0.043082654 -0.09959823 0.25366732 -0.3809507 -0.23120242 0.41964296 -0.48477188 0.82423294 0.08860092 -0.17948432 -0.38908297 -0.5470008 -0.41476998 0.4041363 0.17287424 0.1550737 0.32288614 0.7357474 0.23204775 -0.090185344 -0.72700214 -0.21106252 0.25959802 0.58983463 -0.42724547 0.41181976 0.18009962 -0.2815122 0.5881956 -0.40424362 -0.19553427 -0.4446655 0.4224666 0.62146753 0.18496689 0.3832013 -0.1048482 0.01087266 -0.2582819 0.859294 -0.041045684 -0.073243365 -0.16247943 0.49313638 -0.15692024 0.5276271 -0.45307308 0.25835064 -0.25770575 -0.049786374 -0.0033072308 -0.4028669 0.4228193 -0.33945385 -0.04078679 0.3252972 -0.8333417 -0.058244847 0.7349413 -0.22104487 0.26464906 0.6497807 -0.11636896 -0.005822359 -0.25325307 0.12182718 0.15477818 -0.1722101 -0.3658582
http://www.co-ode.org/ontologies/pizza/pizza.owl#hasSpiciness -0.13996792 0.29988113 0.20514433 0.9854287 -0.3714069 0.33406988 -0.13741486 0.4482169 -0.2013314 -0.1340324 -0.6516612 0.33678734 0.16062452 0.021294177 0.46908143 0.083580874 -0.06226101 -0.3522609 -0.6306393 -0.1723387 0.25027648 0.39347246 0.109178185 0.32466504 0.71809435 0.06003884 -0.46190566 -0.16820705 0.118606836 -0.860903 -0.6368726 0.2167274 -0.05600652 0.18779299 -0.32207394 -0.25264844 -0.36705968 -0.16900033 1.0904471 0.11733243 0.24172176 -0.55339247 -0.26885065 -0.97418106 0.4645452 0.68321073 0.20595966 0.6936404 0.48331153 -0.039905008 0.013484054 -1.0163772 -0.14589879 0.19549923 0.2200544 -0.05291751 0.64106244 -0.10294579 0.27625495 0.53813416 -0.36028332 -0.10787138 -0.07722619 0.21676849 0.88629097 0.013258832 0.41845647 -0.5994273 -0.0022110366 0.088218495 0.6878518 -0.12104455 0.06950452 0.6763976 0.16765107 -0.21683364 0.34337056 -0.5046961 -0.32594734 -0.07389974 0.3247054 -0.082961276 -0.66134393 0.26386335 -0.5178719 -0.35739625 0.325371 -1.2045565 0.075908385 0.6326414 0.07924197 0.6555554 0.1347005 0.4962099 0.82751256 -1.1024611 0.11833058 0.17491834 -0.4041292 -0.20648775
capricciosa -0.18854395 0.4579469 0.079216994 -0.4586306 -0.6273987 0.26204067 -0.40927818 0.3971742 -0.8318213 -0.6011849 -0.54466915 1.1961944 0.17502534 0.7017872 0.64778703 -0.40847006 -0.39769143 -0.6779678 -0.121783145 1.1759897 0.13262208 -0.7016335 0.07457755 0.36659065 -0.071487196 -0.45072827 -0.23726355 0.43841222 -0.112546265 -0.19309665 -0.2601368 0.1365273 -0.39107737 0.012311464 -0.16681105 -0.7432438 0.13456942 -0.026241861 -0.47022116 0.51748455 0.5136835 0.24333215 0.062857695 -0.52294743 -0.22527352 0.22248228 0.2324953 0.49331418 0.30168334 0.041477583 0.3842868 -0.5331625 0.0628905 -0.73861474 -0.21258791 -0.01635944 0.31053635 0.14371149 -0.26861343 0.12375785 -0.3215758 0.40270102 -0.48326772 0.22035559 0.16382898 0.0068137287 0.07934892 -0.9095849 -0.10898491 -0.33306473 0.25133866 0.66504663 0.04544221 -0.20154291 0.44541374 0.1461236 0.34997883 -0.079370745 0.27310207 -0.17810325 0.5095373 -0.30410317 -0.5646909 0.33174965 0.1384554 0.27360833 -0.80439454 -0.29906833 -0.33921018 1.1300933 0.029541327 0.5276264 -0.0459463 -0.022617027 0.27146858 -0.13917181 -0.06016751 -0.46783063 -0.09748839 -0.4731906
siciliana -0.21900587 0.72429806 -0.2926733 0.062377412 -0.0059207715 0.4647448 -0.47399768 0.7355402 -1.1613023 -0.6119678 -0.54933226 1.2413481 -0.042091593 0.5480078 0.7032753 -0.7816373 -0.79917026 -0.84615374 -0.28296202 0.56630945 0.1415304 -0.278416 0.3214808 -0.13994633 0.11297715 -0.11859757 -0.17198806 -0.06503525 0.24809504 -0.18337142 -0.5264173 0.019880729 -0.2865046 0.15472491 0.021777533 -0.8905821 -0.00845717 -0.13486086 -0.4435277 0.1611758 0.51906794 0.15533192 0.21668108 -0.80925167 -0.21981359 0.015088115 -0.12950301 0.5498201 0.30264905 -0.09256477 -0.13432203 -0.24811454 0.24371521 -0.4342338 -0.45327127 0.19529177 -0.091146424 -0.055725403 -0.24099763 0.5313004 -0.32779354 0.3466316 -0.47418216 0.19341072 -0.106490016 0.28301075 0.08092073 -1.0769147 -0.107444644 -0.44578713 -0.150494 0.04756405 0.33212504 -0.31445807 -0.048310585 0.2429413 0.2637272 -0.32004318 0.44432622 -0.043176766 0.760448 -0.36769235 -0.53555775 0.48630688 0.07531529 0.15305111 -0.31625295 -0.33467323 -0.32459405 0.7431239 -0.16536236 0.46815836 -0.25997984 -0.3696031 0.23096955 -0.1276547 0.11677711 -0.29226422 -0.3382614 -0.6298106
vegetabletopping -0.5360922 0.56001174 -0.117816634 -0.37729025 0.40151128 0.30148038 -0.8002996 0.87852037 0.13997546 0.06979857 -0.3586974 0.78978384 0.103689 -0.009353367 1.0060209 -0.13233598 0.077058055 -0.76504785 -0.08377796 -0.042855106 0.0787044 0.27876192 0.27490112 0.28286925 0.3419742 0.3943452 -0.24712503 -0.0014702622 -0.31664887 -0.077914976 -0.21683097 0.007349479 -0.62975097 0.63410497 0.35627186 -0.8272584 0.6233881 -0.38051015 -0.03851193 0.89389217 0.33645386 -0.09068599 0.27653363 -0.6414335 0.14504096 -0.37506756 -0.1508793 0.19396715 1.4002157 -0.3988385 0.32919577 -0.03312488 -0.04727814 -0.49484396 0.04086853 -0.46538183 0.20285434 0.5970443 -0.2079335 0.35701087 -0.54500777 0.10706238 -0.094086215 0.001967971 -0.01288113 0.18704411 -0.36440286 -0.69097143 0.6373836 -0.7131489 0.096083395 -0.20137656 -0.33685845 -0.08270984 0.30000934 -0.64734286 0.32426247 -0.12060237 0.28002626 -0.20195483 0.2847343 -0.3852531 -0.29597765 -0.007021658 -0.367142 0.8053079 -0.73380214 -0.7531423 -0.31488732 0.063859135 -0.41806695 0.41449264 -0.050589923 0.25572786 0.35320613 -0.13651717 -0.4631245 -0.35922006 -0.37290186 -0.34698328
seasons 0.2486245 0.66751355 0.45843014 -0.36586744 -0.58388925 0.79387206 -0.49173403 0.36601242 -0.43154803 -0.55892926 -0.64774746 1.0910779 0.29658714 0.4526306 0.6622973 -1.6113727 -0.0013759638 -0.42625353 0.042181432 1.0399815 -0.15692644 -0.2331111 0.17197567 0.39641201 0.38951215 0.24149276 -0.17486593 0.20733163 -0.049131814 -0.8871149 -0.1629492 -0.10204838 -0.10733011 0.3074174 -0.21777502 -0.7887821 -0.083785005 0.51449955 0.15326156 0.66523665 0.382519 -0.36243573 0.07901693 -0.75991106 0.307439 -0.27806622 0.5257036 0.60287356 0.63857013 -0.3813372 0.41771027 -0.6167936 -0.48081967 -0.6134728 -0.05538114 -0.16237782 -0.011122371 -0.5336242 -0.02805062 0.24003603 -0.030217247 0.6009005 -0.49054506 0.05581396 0.17750998 0.3155641 -0.15286662 -0.5763534 -0.09221636 0.03474904 0.2225125 0.047112007 0.4269935 -0.1951465 0.32087696 0.15980992 0.35340726 -0.2755314 0.23258689 -0.97148496 0.6008961 -0.5488872 -0.1817401 0.15598145 -0.49069485 0.36037096 -0.49477196 -0.8691116 -0.48964688 0.8948968 -0.028221887 0.9059761 -0.15860678 -0.06321251 0.43740657 0.17915967 -0.17920645 -0.5424139 -0.06924065 -0.0800668
mushroom -0.085085616 0.7349058 0.42725298 -0.35223567 -0.4771041 0.39739695 -0.66907686 0.6676303 -0.53971964 -0.7287065 -0.3385579 0.7418772 0.2923581 0.34897938 0.27519938 -1.1376472 -0.20203558 -0.78313327 -0.025831545 0.49105778 -0.22298412 0.11800809 -0.095232 0.18133962 0.15503968 -0.16505998 0.06893344 0.37012643 -0.44111523 -0.8071 0.12673944 0.21798031 -0.38546318 0.49374956 -0.29850513 -0.35671547 0.33994746 0.63901806 -0.12006876 0.18539612 -0.09794352 -0.056342296 0.42704618 -0.17031237 -0.1885148 -0.2724295 0.04973335 0.31007951 0.546428 -0.094274506 0.06938839 -0.4162447 -0.46087298 -0.2930765 0.21714002 -0.6509071 -0.14212231 0.0856032 -0.028707778 -0.04541295 0.40604225 0.51739806 -0.030122088 -0.12046399 -0.15395848 -0.06311032 -0.2199898 -0.17687155 -0.43295127 0.34135294 0.6240116 -0.054455385 0.6269455 -0.1797618 0.5674145 -0.06275492 0.20978917 -0.46353543 0.35723057 -0.05699344 0.5425404 0.055698443 -0.27439794 0.6560378 -0.63147473 0.30405068 -0.44202834 -0.22879681 0.11695879 0.34359348 0.11357642 0.9966254 0.33323774 0.21007206 0.40726584 0.10501471 0.25398374 0.27501714 0.2271372 -0.560587
pollo -0.26556543 0.77549964 -0.5474777 -0.45743477 0.028106501 0.8398109 -0.20433736 0.6048268 -0.7045394 -0.7048713 -0.73831713 0.94241023 0.20489001 0.37762076 0.08444208 -0.5767131 -0.39400938 -0.7513195 -0.63347834 0.34657004 -0.70214236 -0.72606516 0.3648335 -0.26638675 0.6478868 -0.54287475 -0.5139239 0.033021998 -0.11042973 -0.4694809 -0.30468366 0.2222691 -0.27604017 -0.30280155 -0.14414294 -0.70811474 0.7244984 0.034920152 -0.2772858 -0.007709322 -0.08755285 0.4203629 0.68970203 -0.98845166 -0.2525423 -1.0596399 -0.050640207 -0.03353973 0.40138268 -0.36475056 -0.045439884 -0.13778816 -0.13775083 0.2297354 -0.6713481 -0.3260553 0.49088615 -0.25105217 -0.6027912 -0.015506065 -0.25246185 -0.35090753 0.019473448 0.2620855 0.7918545 -0.03516187 0.6153872 -0.3019495 -0.1396466 -0.8195993 -0.08349841 0.19409841 0.43949062 0.2125092 -0.21770376 -0.3766131 0.28079394 -0.051659238 -0.30868167 -0.086683296 0.18534125 -0.18941562 -0.16949788 0.50563765 -0.6419668 0.39302158 -0.639595 0.4031997 0.5746605 0.7875338 0.14208241 0.057607867 0.0447416 -0.26407287 0.97795606 0.061570182 0.22526723 -0.40359136 0.05388976 -0.6183648
ad -0.4492606 0.92510813 -0.6331407 -0.78698456 -0.39330396 0.48810893 -0.53126377 0.6988956 -0.46407157 -0.78511435 -0.974865 0.6857485 -0.35159358 0.87605363 0.16685584 -0.48034152 -0.699799 -0.6882296 -0.47928903 0.045576725 -0.24874952 -0.16878016 0.68351316 -0.17649217 0.7418498 -0.22275662 -0.5570439 -0.35340413 -0.21189813 -0.6332859 -0.83839834 0.6370424 0.011561927 -0.23207635 0.4400829 0.10556904 0.83643746 -0.019908452 0.068482794 0.31047118 0.40772712 0.66942084 0.06565787 -0.5726193 -0.56925446 -0.8917431 -0.24188782 0.6929412 0.7913996 -0.31624377 -0.009848447 0.2097214 0.041959167 0.29350847 -0.5069293 -0.42333627 0.44947752 -0.48588017 -0.58909684 -0.54690945 0.13159017 0.029382834 -0.0560761 -0.114663064 0.5360234 0.24771856 0.3064896 -0.86790687 -0.35281265 -0.4518516 0.012387599 -0.08609959 0.16077581 -0.3121339 -0.059844624 -0.109443404 -0.2841175 0.21953472 -0.16071677 -0.298728 0.018392252 -0.37547952 -0.43183234 0.44294772 -0.8556925 0.31702486 -0.6565923 -0.0062414054 -0.47505143 1.0088768 -0.2356398 0.27736798 0.20868084 -0.7522707 0.707182 -0.011622978 0.13131674 -0.49256903 0.25652465 -0.38834825
astra 0.15540203 0.73747385 -0.33261237 -0.6505529 -0.39098215 0.72327405 0.2263455 1.089646 -0.7002966 -0.6592592 -1.0725669 1.1112403 -0.10968004 0.744198 0.54103273 -0.0017444227 -0.42010203 -0.66783226 -0.33289403 0.26591855 -0.52427405 -0.20303935 0.6128834 -0.28699455 0.8275469 -0.45722786 -0.2651024 0.11616747 -0.32609692 -0.74329656 -0.9299374 0.6686807 -0.15610817 -0.32827592 -0.14519423 -0.80092764 0.8816083 -0.06725518 0.10775528 -0.07197658 0.20308892 0.41893426 0.75814915 -0.97935784 -0.48223633 -0.8762745 -0.358966 0.024391716 1.0800617 -0.40064076 -0.063539624 0.05715726 0.33078757 -0.095164 -0.49726576 -0.41734642 0.29630166 -0.55190206 -0.41630256 -0.71706414 -0.21534388 0.09828515 -0.23946206 0.21221176 0.71839774 0.58729374 0.10216253 -0.36275002 -0.6091143 -0.4500649 0.43229917 0.18202269 0.44161052 -0.16336119 -0.38243368 0.15504622 -0.612178 0.15556315 0.24152641 -0.096350946 0.10244089 -0.196023 -0.5537323 0.17032897 -0.6621864 0.82195485 -0.36969304 0.43239775 0.2513341 0.4289581 -0.41757834 0.6585318 0.06641055 -0.53683543 0.9509794 0.6121038 0.17195207 -0.19496241 -0.36882243 -0.80746776
vegetable -0.6490241 0.5653726 -0.092105426 -0.35064274 0.30433407 0.33601522 -0.7702141 0.91414714 0.1064379 -0.16139409 -0.3496382 1.0408475 0.19318557 0.09648656 1.16418 -0.33750197 0.10491948 -0.6066295 -0.090863496 -0.039004683 0.11023739 0.38488662 0.2620507 0.17960873 0.3495853 0.30830315 -0.1801598 0.097665876 -0.31700218 0.17229933 -0.40760356 -0.055197854 -0.5377454 0.5688328 0.3711403 -0.84653866 0.5504511 -0.46824443 -0.13068041 0.91292864 0.46166772 -0.19659927 0.15782362 -0.5717133 0.19928123 -0.41238663 -0.13722275 0.25866458 1.3653808 -0.3559332 0.244286 0.03258178 -0.04556888 -0.30989128 0.05106308 -0.35397357 0.24105912 0.6071873 -0.18194605 0.3686293 -0.5675526 0.13068105 -0.089152664 -0.09776337 0.043560367 0.14783853 -0.3900024 -0.6201787 0.78533334 -0.6720739 0.090197295 -0.08718719 -0.42263103 -0.007890087 0.20004301 -0.71817315 0.42045495 -0.15240002 0.19726625 -0.22298564 0.21524902 -0.43110618 -0.3917061 -0.11884395 -0.45260054 0.84869426 -0.80938613 -0.7484514 -0.15053579 0.16987507 -0.3716277 0.45778796 0.006006487 0.36877608 0.3776864 -0.21596716 -0.37970588 -0.37697443 -0.35559148 -0.3056883
http://www.co-ode.org/ontologies/pizza/pizza.owl#MozzarellaTopping -0.41467336 -0.24859901 0.052979745 0.046601642 -0.4862059 0.48551086 -0.023931148 0.14253373 -0.71276605 0.17258015 -0.71366227 -0.11194817 0.5507819 1.1105735 0.38307336 0.0637773 0.12593807 -0.94296414 -0.26183057 -0.520586 0.28785008 0.4369794 0.6009769 0.36651677 0.5131467 -0.34833458 -0.45473343 -0.49588522 -0.055681616 -0.027667513 -0.1733108 -0.08877233 0.19099934 0.07149402 -0.21677744 -0.24397784 0.5178159 -0.48055348 0.5630707 0.010935236 -0.30244076 -0.23183672 -0.53340346 -0.34239745 0.34136438 0.010432924 0.19558276 0.23553544 0.57661796 0.2649988 -0.17930676 -0.6055235 -0.19834457 0.1993247 0.47965345 -0.56477195 0.26377174 0.11336818 -0.44167948 0.718621 -0.48492846 -0.33418506 -0.42174724 0.5144239 0.607482 0.042447396 0.4778462 0.0063434816 0.020904394 -0.004395451 0.90447533 0.023408594 0.050421093 -0.32353538 0.525628 0.08793356 0.4900106 -0.3747695 0.3219288 -0.35551307 -0.012468893 -0.09423067 -0.43660125 0.384919 -0.40700856 0.10896942 0.17459565 -1.0121635 0.124443434 0.75253105 -0.07037269 0.25449762 0.63429785 -0.3047557 0.011481181 -0.28653666 0.060787406 0.18211718 -0.23804745 -0.4520631
some -0.17928311 -0.098164186 0.62690157 0.6528196 -0.43987158 -0.12675974 -0.7565925 0.2771984 -0.32258993 0.39893278 -0.6151372 0.58400166 -0.411803 0.48342887 0.84841174 0.54606664 -0.34200972 -0.037431795 0.4239821 0.048852988 0.1453217 -0.11183062 0.052811857 0.5087619 0.7952849 0.29665014 0.10051867 -0.27358297 0.014872266 0.14189267 -0.96172005 0.0031251044 -0.047313508 0.673457 -0.13213693 0.088567324 -0.064546324 0.08575047 0.17015561 0.58027214 -0.049299747 0.14982478 0.29966566 -0.22776878 -0.03578378 0.15065312 0.3420681 0.30405614 0.17101409 0.41101536 -0.7065232 -0.3453705 -0.6188635 -0.23592888 0.29916465 -0.20184898 -0.34039947 -0.39961565 0.24919525 0.59977335 0.1998134 -0.360863 -0.9021394 0.051141243 1.0874931 -0.12292044 0.18007013 -0.13338678 -0.1582233 -0.20864208 0.2356262 -0.37983346 0.31426266 0.25051624 0.33978397 -0.071750335 -0.2512642 -0.26844016 -0.20360044 -0.44125283 -0.13877863 0.29046854 -0.7554009 0.6542495 -0.3573135 0.090835884 -0.23621725 -0.6570726 0.7014715 0.4883678 0.21586104 0.14536211 0.011779897 0.2010141 0.8017317 -0.59810024 0.10861165 -0.3525567 0.42332548 -0.49895743
soho -0.39519593 0.91636574 -0.14310394 0.3015519 -0.25415477 0.44830614 -0.45964253 0.99803066 -0.8944385 -0.87390465 -0.56676453 1.0624123 -0.011173986 0.32742232 0.98091406 -0.6433442 -0.20515761 -0.69475424 -0.25897658 0.23642997 0.12845285 0.3699414 0.75822085 -0.12724623 0.48687577 -0.093422264 -0.11868314 -0.23171274 -0.19793709 -0.08756778 -0.42527583 0.12554021 -0.5602588 -0.17650016 0.10405109 -0.80051845 0.16079052 -0.2500578 -0.06356359 0.5283105 0.018980691 0.28646857 0.5629979 -0.8756912 -0.3952553 -0.32680434 -0.09952551 0.3472358 0.39881107 -0.25606042 -0.30272597 -0.25310016 0.2801124 -0.16766809 -0.5491443 0.14968254 -0.11545798 -0.09303631 -0.4286553 0.7269171 0.38285065 0.02462356 -0.2623363 0.58063364 -0.11731884 0.32668138 -0.22924423 -0.8747209 0.27274054 -0.35859057 0.09238827 -0.1184404 -0.031273846 0.033310752 0.06306619 -0.022772983 -0.4313503 -0.014658789 0.012304293 -0.62020683 0.46983838 -0.08629251 -0.13980107 0.21081325 0.17693296 0.51443654 -0.3239138 -0.249831 -0.40096763 0.32173577 -0.14976537 0.38339508 0.21277165 0.12549417 0.6999191 -0.24503428 -0.40545312 0.0065714004 -0.4063096 -0.33103713
fiorentina -0.29315206 0.9692106 -0.27217376 0.16750528 -0.111523315 0.49268273 -0.48872244 0.98131835 -0.8538549 -0.8888096 -0.7182027 0.964979 -0.06228998 0.43637466 0.97026175 -0.7014324 -0.21629362 -0.71760136 -0.44335914 0.15998895 0.020758716 0.3767307 0.9010432 -0.3126898 0.38183716 -0.07879447 -0.1140743 0.031468663 -0.3681071 -0.17278641 -0.24527028 0.10627947 -0.38135254 -0.11232221 0.08464112 -0.65673274 -0.004646036 -0.3580651 -0.05078849 0.40670714 0.08240021 0.41436502 0.51541615 -0.85707194 -0.35055932 -0.35501155 -0.26989555 0.3562551 0.6548157 -0.37707403 -0.37839445 -0.29926524 0.28610757 -0.1684018 -0.6973671 0.1568131 -0.23110087 -0.06546102 -0.37127024 0.6531348 0.37489864 0.10581314 -0.3200177 0.42626888 0.02036904 0.37995404 -0.27847403 -1.0260608 0.28055263 -0.44186744 0.04640544 -0.09479171 -0.09389502 0.13581869 0.14388965 -0.13542758 -0.32667145 -0.11634771 0.08238171 -0.63247204 0.70433426 -0.040841848 -0.21130195 0.4303885 0.2166053 0.4945955 -0.43600482 -0.16970985 -0.45261246 0.3109408 -0.15829685 0.5942454 0.0021396526 0.085143946 0.5847908 -0.19551685 -0.27517816 -0.0064480407 -0.3076415 -0.270944
napoletana -0.0033064438 0.5094568 -0.3942073 -0.07877654 -0.49018908 0.8637732 -0.09653335 0.5126769 -0.6372673 -0.90099543 -0.7448011 0.99968183 -0.19915694 0.3074007 0.850203 -1.096595 -0.29826248 -0.2991188 -0.053876832 0.7279947 0.33906665 -0.06614615 0.2271205 0.4055448 0.19167314 0.0802437 -0.046440937 0.42330092 -0.08255103 -0.32946137 -0.22414023 0.047902 -0.6881439 -0.26524657 -0.093037084 -0.9154488 0.11422849 -0.012869478 -0.18932179 0.7683478 0.3259692 0.10436543 0.13258332 -0.6950555 -0.13035777 0.055885196 0.27034387 0.5430251 0.2906578 -0.19315635 0.14726818 -0.54549307 -0.4365223 -0.6954401 -0.16665366 -0.039035514 0.40247226 -0.30341813 -0.18172114 0.8870401 0.043934733 0.45803013 -0.28959796 0.4554499 0.027679957 -0.069338374 -0.017356418 -1.1385052 -0.31684244 -0.43806985 0.07027783 0.102743566 0.37557203 -0.048229467 -0.009002591 0.20000347 -0.05990733 -0.09816203 0.054368302 -0.47404188 0.4336724 -0.32677117 -0.23714265 -0.07910713 0.04980579 0.2617159 -0.42575723 -0.56321895 -0.41670442 0.65606695 0.063464716 0.7215273 -0.118383504 -0.06929138 0.5137003 0.043652404 -0.120334 -0.17792903 -0.15394028 -0.31152555
olivetopping -0.23445612 0.5361072 0.033652727 -0.31579307 -0.39174294 0.024877045 -0.89754665 0.34980533 -0.9541321 -0.57694143 -0.33991513 0.64883864 0.19801995 0.4611364 0.5796924 -0.91817576 -0.32169467 -0.79634213 -0.069717124 0.4207024 0.26338613 0.24867953 0.14405973 0.033840667 0.062310226 -0.02715529 0.3154792 0.45743674 -0.5486 -0.204529 -0.05515881 0.15407681 -0.68684745 0.46218255 -0.15138204 -0.36520633 0.35476413 -0.07771694 -0.2581522 0.21004757 -0.23850892 -0.03729384 0.42599797 -0.23030843 -0.20860158 0.0913029 -0.09910267 0.35696548 0.19927202 -0.08111806 -0.08820399 -0.8660034 -0.41224965 -0.45863876 0.05317168 -0.49174112 -0.01592104 -0.15375489 -0.15599068 0.845798 0.55107087 0.11589102 -0.34863305 0.4401138 0.114269905 -0.05487338 0.081814885 -0.10802312 -0.64296407 0.327669 0.16096629 -0.3211659 0.70357895 0.15117168 0.4744734 0.13675709 -0.15949301 -0.27927607 0.22891027 -0.3389386 0.7522637 -0.1277025 -0.59748167 0.539299 -0.32720178 0.37791076 -0.49596614 -0.35491964 0.08664636 0.4501568 0.5070982 0.8525337 0.5811485 -0.2207487 0.32423842 0.19586185 -0.10816639 0.09157769 -0.12013366 -0.48604137
SubClassOf -0.5051573 -0.3282819 0.5259134 0.3614391 -0.010149651 1.0121224 0.038152367 0.38989624 -0.18884945 -0.28754127 -0.4751363 0.3412661 -0.0422355 0.7244649 0.20134704 0.2784844 -0.23720765 -0.06487731 -0.08057864 0.14387822 0.35089183 -0.062205475 0.6563899 0.0589413 0.5537778 -0.25302738 -0.1620039 -0.10703526 -0.072580956 -0.63867205 -0.4302241 0.35344076 -0.010812981 0.03264369 -0.48731235 -0.17772427 0.28577673 -0.34184107 0.5153303 -0.25111023 -0.083969206 0.08154724 -0.28850293 -0.5457974 0.31393665 0.08476885 0.27161115 0.29230228 0.16036724 0.27110457 -0.026562627 -0.81239665 -0.03268504 0.29076108 0.11504724 -0.17884596 0.17619856 0.37856692 -0.0019219541 0.6689888 0.03218321 0.1368043 -0.33858034 0.59832793 0.47396106 0.15119503 0.18320864 -0.4945001 -0.1111515 -0.041799035 0.8107914 -0.080265746 0.36410546 0.34389803 0.3010808 -0.3396468 0.478956 -0.67737675 -0.41240403 -0.12573247 0.6041919 -0.02071729 -0.6881945 0.5021211 -0.22857726 -0.18178315 1.01496 -0.57245916 -0.280031 0.7350078 0.18007618 0.56552684 0.069572054 -0.25000265 0.4999568 -0.95993245 0.0456173 0.23813066 -0.09280517 -0.4206191
country 0.0062954337 0.51094824 -0.14869899 -0.28891808 -0.42060244 -0.10428791 0.068933584 0.6433753 -0.16749406 -0.49928728 0.49720114 0.52782524 0.39135808 -0.3825283 0.18949428 -1.0305377 -0.48674226 -0.3572234 0.55689543 -0.05328809 0.0048472094 -0.44940466 0.46301496 0.5077025 0.29441372 0.1903336 -0.11187895 0.3896802 -0.027327016 -0.12868536 -0.43151855 0.3715877 -0.45373863 -0.4271029 0.3436856 -0.6952439 0.3622275 0.46177346 -1.0437818 0.7066975 0.018894527 -0.23239823 0.2449386 -0.024408998 -0.051518034 -0.20043564 -0.028135475 0.6001103 0.45663184 -0.37213564 0.063874975 -0.19400896 -0.4547167 -0.35142928 0.11800183 -0.03940259 0.76658785 -0.64546 -0.42699224 0.536585 0.61825615 -0.28360665 -0.348815 0.8144642 0.5606505 -0.64963603 0.17141166 -0.6867789 -0.7414335 -0.37945092 0.50349396 0.0051911124 0.108035706 -0.4944714 -0.23170297 -0.023557855 -0.531324 -0.23477253 -0.2745679 -0.64666736 0.33699012 0.22338048 -0.4360112 0.6328168 -0.16188149 0.68995684 -0.5746341 -0.30994627 0.7079469 0.4941429 0.61799556 0.96260065 0.2754739 -0.24411662 0.45045975 0.0025874209 0.38728395 0.34416336 -0.106513575 -0.1407267
carlo 0.0529666 0.49877566 0.19100752 0.19844387 -0.44767386 0.50080407 0.25594473 1.0244863 -0.8848582 -0.8530998 -0.67147267 0.6229718 0.15529172 0.58420205 1.1366504 -0.9027064 0.36811137 -0.3785734 -0.7820882 -0.17810982 -0.36104944 0.6662072 0.89017254 0.5689868 0.7651819 -0.36038205 -0.42479452 0.20733717 -0.89478 -0.8296372 -0.38821626 0.34480622 -0.4233219 -0.3749714 -0.09692631 -0.23067701 0.2185038 0.39660412 0.3469459 0.8688517 -0.13137814 0.5568569 0.672151 -0.009269435 -0.009847444 -0.59698814 0.05578075 1.0680853 1.0011737 -0.02306471 -0.24178049 -0.19673662 -0.03246778 0.34773454 -0.32180125 -0.18632086 -0.3194097 0.09767269 -0.3475174 -0.11059378 0.6452174 -0.11157221 0.118527934 0.27575144 0.50748986 0.36717683 -0.1059447 -0.4436045 0.38929293 -0.74413013 0.49479395 0.04415716 -0.33668628 -0.427203 0.63402784 -0.17522828 -0.58394134 -0.21618733 -0.38464662 -0.76831686 -0.0237974 0.21355294 0.11477321 0.50278836 0.36474046 0.7395841 -0.5398648 0.3544466 -0.22564813 0.17157036 0.1710723 0.62407875 0.16441362 0.6316992 0.9936581 -0.3340206 -0.376467 0.2429861 -0.3340444 0.35510504
prince -0.30554184 1.0041819 -0.25248444 0.076409556 -0.63984513 0.59676945 0.08822143 0.83727896 -1.1405174 -0.5197166 -0.10462235 0.86653346 -0.16783693 0.31276232 0.7061425 -0.5061408 0.2742509 -0.7078034 -0.16890328 -0.22543715 -0.35371312 0.61843073 0.80585915 0.15418737 0.9299452 -0.3869311 -0.22740257 -0.2483701 -0.75709623 -0.58098745 -0.101456314 0.4557432 -0.35164452 0.11545244 0.087629095 -0.7066475 0.27227193 0.13208403 0.11735925 0.4341369 -0.24954167 0.17546412 0.40514195 -0.54320073 -0.055482745 -0.5541674 0.067810774 0.579244 0.4318372 0.1003442 -0.41051736 -0.32935032 -0.50188684 0.08369123 -0.011840259 0.2836821 0.1381738 0.3889138 -0.71847445 0.06685585 0.4742727 0.37228894 0.24881321 0.55116594 0.02133617 -0.033495266 -0.6106706 -0.37096107 0.3674769 -0.63343465 0.8821131 0.4042732 -0.10760999 -0.5893357 0.7529247 0.1431988 -0.74414545 -0.43938425 -0.23893668 -0.55805916 -0.3780563 0.47659856 -0.05672555 0.1942211 -0.3191795 0.75726724 -0.33597022 0.6240305 -0.07418039 0.58206624 -0.39157736 -0.07909625 0.520261 0.63845503 0.47735888 -0.7151759 0.33005512 -0.001408342 0.44687837 0.49663958
olive -0.194539 0.781912 0.15659855 -0.29006884 -0.64684546 0.122818395 -0.67198956 0.48034933 -0.88959324 -0.47720224 -0.3593006 0.9070445 0.28554088 0.506364 0.4554127 -1.1657512 -0.32392 -0.80115044 0.050869238 0.47871557 0.21215637 0.18354599 0.2930205 0.08168937 0.18776049 -0.030896053 0.37649646 0.4852093 -0.6330991 -0.008183753 -0.084803715 0.1377402 -0.69145083 0.56182927 -0.027531015 -0.38297465 0.26414737 -0.20063804 -0.4053328 0.35642582 -0.12270308 -0.02023172 0.55353105 -0.18755561 -0.40334335 -0.057275437 0.1598126 0.4575697 0.22998682 -0.4166952 -0.21320428 -0.8321592 -0.6471301 -0.31108513 -0.0361196 -0.8268545 0.04154408 -0.11923748 0.0017311336 0.84802836 0.8200303 0.28083736 -0.31475684 0.43251836 0.23971662 -0.24389577 0.14802583 -0.22920775 -0.6073743 0.5299846 0.025262592 -0.60090506 0.5903972 0.29823977 0.30202758 0.06816025 -0.1770408 -0.3078399 0.22752911 -0.064787045 0.73337954 -0.14397547 -0.66960275 0.42464882 -0.33505207 0.21242887 -0.7355369 -0.2114803 0.244642 0.29056945 0.52507716 0.7870639 0.43760508 -0.06738649 0.12053535 0.2571241 0.14328241 0.093634576 -0.1827756 -0.54761714
giuseppe 0.54188746 0.09852935 -0.5079422 -0.17745514 -0.25898883 0.59070504 -0.39864752 0.2866195 -0.41850042 -0.43544683 -0.5913054 1.3994938 0.78058565 0.90951514 0.5906509 -0.3203551 0.058579523 -0.5774629 0.10094532 0.5958659 -0.451523 -0.5911302 0.3555845 0.9135516 0.5973166 -0.6427831 -0.027928488 -0.04634476 -1.0793982 -1.0869603 -0.61061835 0.6653776 -0.12452303 -0.3155367 -0.05362992 -0.44146514 0.03611107 0.13038068 -0.36518952 0.9539874 0.22724968 -0.2489029 0.20139046 -0.38155785 -0.22501385 -0.24674398 -0.37279043 0.44337136 0.77387506 -0.021391384 0.57566375 0.059758715 -0.353534 0.2662942 -0.08056561 -0.6419452 0.016371537 0.09205288 -0.12542458 -0.4882082 0.0077374876 -0.27432 0.25094256 -0.33715653 0.07882494 -0.064086616 -0.05626617 -0.8260004 -0.6455376 -0.7520147 1.009125 0.5024619 -0.20381494 -0.36776313 0.37932634 0.2683896 0.1394792 -0.44606748 0.17384684 -0.7469813 -0.21369345 0.17411263 -0.23128037 -0.6317893 -0.79964864 0.7839292 -0.6304085 0.37384325 0.81218654 0.8282142 -0.55885935 0.4749292 0.35171813 -0.02203404 0.9280349 -0.30656314 -0.15368766 0.17947426 0.18924154 0.01229428
sloppy -0.14806053 0.6858102 -0.5162828 -0.40071478 -0.19057669 -0.0767922 -0.06584927 0.6463083 -0.37807247 -1.0629421 -0.77348965 0.92388797 0.4290744 0.19648664 0.7045733 -0.40827325 0.17219232 -0.65696067 0.31925163 0.18547572 -0.76087534 -0.7696809 -0.1867581 0.6803622 0.32910228 -0.022524666 -0.20174097 -0.34844914 -0.6087828 -1.0547042 -0.553271 0.3695611 -0.02951749 -0.23932193 0.37181064 -0.43257993 0.120561644 -0.2003301 -0.835283 0.6615554 0.31361213 0.01283928 0.29426065 -0.3412536 0.10735991 -0.6443284 0.29810628 1.0947369 1.0153347 0.3607251 0.7593098 0.4666452 -0.64649886 0.05349869 -0.37582934 -0.643181 0.5818034 0.5230111 -0.28220508 -0.17594863 -0.4250529 -0.05661756 0.24933033 0.051187005 0.19423702 -0.027457027 -0.1596961 -0.25996816 -0.19085191 -0.20024276 0.40846944 0.31296295 0.459956 -0.10012183 0.2787014 0.09924849 0.16187252 -0.6625409 0.31697983 -0.96700966 -0.4319331 0.060539015 -0.47418517 -0.18497147 -0.5636739 0.32808077 -0.03787944 -0.15909594 0.61842984 0.3531004 -0.25255662 0.43892083 0.75025 -0.3854055 0.6341075 -0.5460599 -0.4558904 -0.007768341 0.10551738 -0.20901302
parmese -0.27817857 1.0073646 -0.3422295 0.33284408 -0.30487287 0.11778899 -0.30280116 0.8046097 -1.1069236 -0.39641735 -0.034283344 1.4417207 0.424377 0.32325542 0.95515853 -0.6636354 -0.3794722 -0.8933067 -0.23722643 0.031123672 -0.2041589 -0.039722547 0.7820063 0.42979854 0.33768848 -0.5931913 -0.27423736 0.077845596 -0.44490048 -0.39856648 -0.19558853 0.09829695 -0.016726246 0.2543244 -0.12060336 -0.7070371 -0.20157915 -0.32338974 -0.5473973 0.44478264 0.21021928 0.3916507 0.42906108 -0.32222772 -0.51668954 0.1002889 -0.6390627 0.8314197 0.5436734 -0.083211765 0.081044905 -0.1853015 -0.15781084 0.23226866 -0.5717265 0.30335864 -0.31679824 0.51666236 -0.42358664 0.0012045265 0.25876072 0.19636191 -0.42539576 0.05983046 -0.114212275 0.14406556 -0.14478348 -0.69491625 0.18582101 -0.48372322 0.3692246 0.1397144 -0.16025464 -0.27673122 0.43881568 0.19021931 -0.003938063 -0.8086188 0.17681903 -0.25973028 -0.0016895444 0.17366937 -0.18334186 0.40080798 0.2443348 0.7556525 -0.4949066 0.393902 -0.088718556 0.57101285 0.00848058 0.2293197 -0.1926235 0.39659193 0.34129956 -0.5104912 0.17700449 0.3630654 -0.46182224 0.08290624
cheese -0.0020341068 0.25589973 0.05144872 0.39086276 -0.54472774 -0.037135314 -0.48814708 0.7369765 0.04586947 -0.46443903 0.018150233 0.39270613 -0.11284212 0.28595686 0.7925298 -1.003651 -0.55547357 -0.08185625 -0.36875412 -0.11862188 0.28855625 0.56815493 0.6593785 -0.23392265 0.3663763 -0.15760142 -0.42052332 0.19573471 -0.38762996 -0.5136333 0.07959541 -0.45509687 0.065097034 -0.12440316 -0.18922964 -0.053193692 0.393178 0.15729709 -0.32593566 0.5653591 0.5854221 0.6506898 0.30978164 -0.5829193 0.19431607 -0.28718984 -0.31211543 0.75305426 0.89025676 -0.7404453 0.11417485 -0.19858736 -0.9173929 -0.009502788 -0.2825988 -0.14408961 0.027472153 0.15721747 -0.39252338 1.0748012 0.7245535 0.5452926 -0.019967312 0.087390594 0.29459617 0.28090256 0.086853385 -0.40165833 0.18538201 -0.5492748 0.6551253 -0.016850151 -0.08781501 -0.413161 0.67112637 -0.51306033 0.42772883 -1.0565287 0.24295305 -1.092632 -0.50639886 0.05383425 0.124996744 -0.29196727 -0.3101904 0.35623193 -0.038318023 -0.97014946 -0.49291664 0.12686802 -0.05834942 0.28386807 -0.24333711 0.52411056 0.40202084 0.5109383 -0.4137089 0.25113943 -0.13327032 0.09870347
vegetarian 0.60583013 -0.06721012 -0.13281418 -0.17113106 -0.7269696 -0.07768498 -0.4491344 0.98734 0.019311829 -0.3143988 -0.5860125 0.38969147 0.28360534 0.34998932 0.29322907 -0.48177746 -0.30299142 -0.5536056 -0.2619634 0.89589334 0.17384861 0.42677447 0.4907424 0.040993992 0.43291035 -0.7313984 0.5422928 0.2902038 -0.7385606 0.10511321 0.28761008 -0.3031122 0.09118119 -0.1322369 0.39960417 -0.3698522 0.0032973338 0.121754095 0.30401292 -0.3357199 -0.10421123 0.20285343 0.1941356 -0.3579257 -0.4777105 -0.90838623 -0.44506928 0.6690757 0.7438783 -0.64776194 0.084558 0.318164 -0.27897444 -0.0029509896 -0.35934415 -0.12431885 -0.28714553 0.41340923 0.18083736 0.96854293 0.19226156 0.25962102 0.64785093 0.1633762 0.53753394 0.07802355 0.68890244 -0.113360405 -0.36213043 -0.15873279 0.42754447 0.07708138 -0.21054567 -0.7344976 0.6591731 0.054844785 0.10590016 -0.87148714 0.070866436 0.34068236 0.26949185 0.03903033 -0.23057096 0.36631125 -0.8128375 0.15529129 -0.27490124 -0.3650646 0.41247767 0.24711764 -0.6986917 0.34074032 0.74613166 0.21617132 -0.36233178 -0.18211314 0.20986012 0.87809193 0.25021228 -0.93764615
reine 0.14802776 1.0771254 -0.08781942 -0.23903164 -0.20322685 0.14994626 -0.49560812 1.1568398 -1.2945294 -0.81343716 -0.4950359 1.2830249 0.30796054 0.5105468 0.58516014 -1.2014441 -0.35998532 -1.023969 0.2214385 0.6568638 -0.4335912 -0.3826014 0.21898367 0.8569034 0.40781707 0.16081183 -0.30000663 0.4374072 -0.4305618 -0.6672629 -0.061565123 0.5525296 -0.09018958 0.6951605 -0.23103887 -1.0769874 0.39391157 -0.3955111 -0.2592453 0.12879866 -0.009346883 -0.007394133 0.12591423 -0.34161198 -0.12749013 -0.13434145 -0.63263303 0.51603705 0.2136904 -0.3780515 -0.02784134 -0.4113821 -0.19251445 -0.41359624 0.17266895 0.029449392 -0.3788114 0.17563793 0.008036488 0.08636473 -0.07104998 0.71179503 -0.3752814 -0.25437632 -0.03583913 -0.1732977 -0.14187454 -0.9527708 -0.39476067 0.08144202 0.054799225 0.19084194 0.45380285 0.17135885 0.5379118 -0.36586022 -0.12390508 -0.6631822 0.32501534 0.15123111 0.6744641 -0.28444183 -0.8106581 0.7573654 -0.20025203 0.82598215 -0.52551776 -0.18660343 -0.23826964 0.7482517 -0.42687985 1.0097404 -0.3315565 -0.20634277 0.2890126 0.020565514 0.13632748 0.4463069 0.07037743 -0.786045
la -0.33698484 1.0209862 0.06120919 -0.42691538 -0.17304839 0.72976875 -0.8652808 1.0384712 -0.6062667 -0.5092549 -0.14930753 1.1153057 0.17538662 0.5473098 0.31428117 -1.2891464 0.25681192 -0.84053534 -0.11432632 0.4310772 -0.272955 0.00051695865 0.48667908 0.32590094 0.039832797 -0.3432524 -0.31396225 0.59373045 -0.65466154 -0.67651975 -0.6700694 0.05980121 -0.11652938 0.20872174 0.040040627 -0.8607014 -0.057335924 0.3144848 -0.6572727 0.46678388 0.027201192 -0.4252029 0.11727631 -0.315564 -0.65615016 0.22682364 0.044830058 0.80551994 0.18460386 -0.040253613 -0.1931091 0.10076145 -0.21595542 -0.4284017 -0.38294303 -0.4044296 -0.18700635 0.0864037 0.07397393 0.16514158 -0.08063021 0.20124525 -0.6020763 -0.17207761 -0.16058782 0.2353988 -0.2283536 -0.48497534 0.06494965 -0.14718471 0.63908315 -0.27427176 0.5040894 -0.3819184 0.2673522 0.17575048 0.46662477 -0.30029914 0.5074713 -0.07746033 0.26161167 0.3591326 -0.8278889 0.6693801 -0.6642834 0.84936816 -0.6045676 -0.059397053 -0.381004 0.44408557 0.508486 0.21223632 0.0629116 -0.6011706 0.39806768 -0.24658456 0.121738784 -0.17310654 -0.61995643 -0.7468367
onion -0.08109128 0.47183082 -0.92700076 -0.71589446 -0.54594016 0.21216087 -0.7610549 0.101940624 -0.5099773 -0.42539665 -0.9374021 0.59204066 0.71051544 0.7531049 0.46419528 0.0076345503 -0.33089086 -0.59227157 -0.24860138 0.13937183 -0.09625783 -0.11122095 0.44990963 0.02020285 0.35815254 -0.2985042 0.18517694 0.032325283 -0.880525 -0.29270524 -0.516748 0.7081973 -0.6030427 -0.08566118 0.2593415 0.15631868 0.42545947 -0.49139267 0.14665398 0.43684006 -0.019695526 -0.019589141 0.35305247 -0.26091364 -0.28786477 -0.39840034 -0.13869867 0.00044155432 0.56537306 0.16087325 0.40042105 -0.56810737 -0.574529 0.2897096 -0.455946 -0.94761586 0.7694247 0.09798685 -0.40131205 0.13383654 -0.10311763 -0.5734347 0.19307719 0.40753385 0.32312766 -0.13386297 0.33807477 0.0013724434 -0.8089224 0.25797853 0.30781445 0.20176733 0.4840032 0.31316113 0.10524649 0.0055556144 -0.25051448 -0.07152051 0.13314424 -0.34937978 -0.036354434 -0.16427836 -0.74961716 -0.29177895 -0.6568583 0.6354821 -0.7389724 -0.015279215 0.73802745 0.4371643 -0.020003859 0.6360882 0.71628356 -0.35955718 0.252626 0.40966183 -0.47932628 0.1157683 0.095209345 -0.2804894
origin -0.5854182 0.52616876 -0.35213193 -0.14770986 -0.28794092 -0.3708593 -0.38005042 0.08772617 -0.050491743 -0.78926986 0.38991153 0.32441145 -0.24873003 -0.42386776 0.634147 -1.2114028 -0.11513769 -0.27147967 0.43331093 0.3383429 -0.43500194 -0.3788818 -0.00028370623 0.85950935 0.8763835 -0.21141341 -0.07365431 0.574742 -0.3974379 -0.05568093 -0.7644757 0.49616334 -0.5005565 -0.24310014 0.064106226 -0.9239636 0.44708386 -0.06618537 -0.7883145 0.40690094 -0.0850868 0.5320948 0.31674498 -0.044472907 -0.6981026 -0.3585803 -0.18099856 0.69065326 0.52899194 -0.16821097 0.27089655 -0.49049136 -0.7702682 -0.40236485 -0.21157867 -0.3155637 0.4156987 -0.83881915 -0.4206067 0.57820576 0.866873 0.4530548 -0.0128363045 0.6276664 0.88487244 -0.2515667 0.18243816 -0.7538745 -1.0237863 -0.25906956 0.78529847 -0.3182222 0.42662317 -0.43636656 -0.22022003 0.44766605 -0.5044319 -0.58684 0.15273447 -0.7144863 0.019421397 0.20188375 -0.7929571 0.16067833 -0.5940622 0.64631873 -1.1934292 0.22151846 0.13649507 0.79210913 0.55924255 0.6894767 0.05824921 0.07071515 0.647379 -0.09471227 -0.1441164 -0.27596024 -0.153447 -0.34536383
mild -0.23644893 0.40008515 0.5347404 0.19905491 0.015960986 0.37929997 -0.65127105 0.583884 -0.07413112 0.008628206 0.009988376 0.33833548 -0.001140045 -0.29819652 0.2716705 0.21500419 -0.7238325 -0.5406445 -0.06364967 0.16486694 0.117609106 -0.28302237 -0.0089148665 0.10053573 0.8450419 0.1634731 -0.059590906 -0.098301634 -0.006966762 -0.6913514 -0.1698508 0.026394114 -0.88576066 0.84719664 -0.32285124 -0.37743053 0.6912449 0.41880593 0.3550688 0.40220785 0.7650652 0.3614241 0.26138225 -0.5493284 -0.0660769 -0.0779449 -0.26405898 0.4348304 0.93669814 -0.31396034 0.15388831 -1.0035659 -0.16112462 0.17280619 -0.23419368 -0.5194034 0.038998637 0.16141361 -0.66031945 0.020625861 0.15555881 0.23605978 -0.6262136 -0.10415852 0.3441753 0.12558195 0.16841304 -0.92998046 0.17514628 -0.71024966 0.73049235 0.22928452 -0.52620745 0.059994414 0.411392 -0.291402 0.16358134 -0.70043606 0.1385981 -0.5438173 0.51067984 -0.22398531 -0.007931065 0.6402899 0.18315852 0.70358264 -0.22263353 -0.5757307 -0.4840101 0.020102432 0.21990225 0.36635724 -0.52805746 0.29482704 0.059481557 0.227599 0.15489273 0.043846596 -0.30101076 0.102389425
caprina 0.1349244 0.49726453 0.16261162 0.51598364 -0.3221952 0.568985 -0.0950348 0.5166423 -0.3705805 -1.112806 -0.33682233 0.5191345 0.05248156 0.61226505 0.6311848 -0.47074148 -0.25692296 -0.022330452 -0.4317449 0.28612483 -0.34810427 -0.25878534 0.3826385 -0.016738122 0.26685607 -0.14331356 -0.123182476 0.14173955 -0.5737817 -1.0210764 -0.33769602 -0.24122082 -0.21042085 -0.09906195 -0.15010434 -0.0055212784 -0.3564254 0.25131842 -0.44007793 0.33868843 0.5296179 0.40207267 0.179151 -0.59616774 -0.14164719 -0.22694477 -0.5071012 1.0243523 0.64770466 -0.20547152 0.32487887 -0.17572722 -0.8693571 0.14917749 -0.32833996 0.058039222 0.13896036 0.043865208 0.0004908395 0.33676577 0.8440539 0.4591135 0.08643756 -0.36430514 -0.2017815 0.1858498 -0.13167717 -0.4147459 -0.3482597 -0.58215904 1.0772742 0.19391546 -0.25000197 -0.14763302 0.6261445 0.34959486 0.10530775 -1.0294309 0.09445148 -0.9185491 0.17609438 -0.18447743 -0.02152246 0.044959847 0.21487443 0.17272048 0.22565189 -0.4456974 0.09457005 0.021717202 -0.19595082 0.83140427 0.112378836 0.010403091 0.5898823 0.08045654 -0.11319389 0.4038228 -0.19758227 0.17235206
http://www.co-ode.org/ontologies/pizza/pizza.owl#NamedPizza -0.47680002 0.08784989 0.15674558 0.46678516 -1.0060033 0.24284191 0.39308175 0.5236833 -0.645033 0.80028707 -0.55404496 0.004312207 0.91974515 0.7261413 0.22826153 -0.124561764 0.10252014 -1.2326428 -0.088963725 -0.6926667 0.0063675316 0.421192 0.52761954 0.52066666 0.8271111 -0.33531892 -0.5487233 -0.90266156 -0.009621531 0.028597733 -0.21854651 -0.515997 0.23931646 0.25452137 0.011922546 -0.39553064 0.14972761 -0.54952306 0.49774772 0.37079725 -0.01908348 -0.7944171 -0.25301695 -0.22038044 -0.09918815 0.13408186 0.2222743 0.99990743 0.87220544 -0.12386519 -0.62258375 -0.22538196 -0.32844445 0.65810335 0.4184492 -0.6973951 0.7553759 0.26222715 -0.15648952 0.5560674 -0.25863412 -0.17547126 -0.50191694 0.051308043 0.81300396 -0.11456447 0.3449333 -0.2496049 0.1523743 -0.11925844 0.8868521 -0.6444933 -0.45219573 -0.13950388 0.38455945 0.11391367 0.48650026 -0.96416026 0.46696094 -0.13140336 -0.6464743 0.1948334 -0.48921046 0.40288424 -0.38464078 -0.42874393 -0.1423851 -1.2017188 0.3479108 0.36387464 0.023993513 -0.14953336 0.44220242 0.26057413 -0.48507673 -0.23208822 0.8623516 0.19914529 -0.18359604 -0.25646725
or 0.060121067 0.056710556 0.57496816 0.14680667 0.1306736 -0.1827396 -0.9573717 0.04005106 0.075378 -0.0627055 -0.49429652 0.3017947 -0.109975465 -0.08590457 0.79502416 0.5837255 -0.054889467 0.02848396 -0.39908648 0.34047925 0.10233313 0.01140392 -0.37127605 -0.050932743 0.3790934 0.13221553 0.27298313 0.054901652 -0.20629187 -0.4102693 -0.35277086 -0.0771128 0.017854597 0.33592924 0.039621726 0.0072448584 -0.063792564 -0.23454705 0.13857143 0.16289473 -0.26732558 0.5984528 0.0978635 -0.76527363 0.42451668 0.17244658 -0.6075026 -0.18262862 0.2964014 0.1166957 0.34711444 -0.22992861 -0.14263456 -0.69142175 0.17643133 0.6340159 -0.1564993 -0.3854405 -0.095187746 0.67511004 -0.21070014 -0.40943906 -0.5158065 0.5272919 1.0045326 0.6124678 0.35310847 -0.17018048 -0.16795352 -0.53532165 0.6812056 -0.0022414986 0.36427206 -0.2434348 0.5790147 0.2442225 -0.03388642 -0.558665 -0.5036474 -0.48440763 0.34141058 0.06581717 -0.6581937 0.7123838 -0.7077095 0.6926899 -0.39983475 -1.0312462 0.07998503 0.6084562 0.34579858 1.2741445 0.63297284 0.1401544 0.9232352 -0.87990314 -0.6243785 0.10970929 -0.0008368981 -0.52498496
http://www.w3.org/2004/02/skos/core#altLabel -0.22140549 -0.35139143 0.29238454 0.18218304 -0.33955827 0.6671745 0.091608256 0.31840548 -0.2786453 0.7032751 -0.3101426 0.36943093 0.52154577 0.7904384 0.35308325 0.12659886 0.27500802 -0.5094977 -0.2522246 -0.2509089 0.0049845926 0.14369781 0.6627903 0.1465338 0.3966244 -0.59099066 -0.054054353 -0.58537203 -0.106672764 -0.26156697 -0.22286323 -0.16849461 0.13542862 0.44093633 -0.37956744 0.29538044 0.35953158 -0.55931133 0.22655715 0.25561583 -0.09269906 -0.07773939 -0.4422714 -0.47551548 -0.28969213 0.26489016 -0.0064739455 0.49709064 0.67783934 -0.21636333 -0.1551766 -0.06256759 -0.19002143 0.42715025 -0.10467797 -0.15392236 0.2538787 0.24213961 -0.4257922 0.03521842 -0.3298564 -0.11354966 -0.6663848 -0.13772886 0.64901865 0.23806748 0.08854059 -0.48223516 0.4521904 -0.6787014 0.68727666 -0.2008852 0.25824106 -0.14617403 0.61757153 0.13202834 0.6176409 -1.0866544 -0.011913288 0.41196755 0.40915745 -0.37020978 -0.5599373 0.43453112 -0.45187506 0.044553842 0.31841984 -0.525789 0.009070201 0.6360226 -0.11127986 0.14743331 0.29636723 0.1623618 -0.2851976 -0.41176775 0.15910542 -0.04883521 -0.30135918 -0.16103719
ham -0.47515416 0.46584353 0.10163697 -0.16716954 0.08473521 -0.45284313 -0.9376355 0.39303938 -1.2887026 -0.16033997 0.25893006 0.61409616 0.39933932 1.0964378 0.15996197 -1.0032362 -0.3010268 -1.0613602 -0.5562032 0.10163318 -0.20981106 -0.012516996 0.32983997 0.6419789 0.11514861 -0.24017644 -0.23738886 0.6618977 -0.33691967 -0.09976159 -0.5603348 0.429727 0.07060343 0.7849221 -0.22001158 -0.519827 0.39494008 -0.55645955 -0.5558361 0.15847427 0.08284276 -0.16548514 0.116021045 0.12894285 0.07594268 0.24219175 -0.30012575 0.7396192 0.21238673 0.040328033 -0.064357646 -0.8314607 -0.31149992 -0.22925457 0.19476405 -0.20855634 0.057942275 0.6515488 -0.15772589 0.45883057 0.069898665 0.14458849 -0.505504 -0.046547774 -0.13532871 0.09477824 0.33595297 0.012311152 -0.36330575 0.36395952 -0.036453478 0.039105598 0.3137511 -0.084780835 0.22446471 0.23799658 0.2940161 -0.58149385 0.65563077 0.2311652 0.15741625 -0.22564347 -0.8101111 0.4734552 -0.3395788 0.44725522 -0.3189616 -0.09988842 0.1899915 0.38362297 0.5406394 0.45152014 -0.053977404 -0.25960144 -0.3076706 -0.021288726 0.15159115 0.059157416 -0.457884 -0.22627753
named -0.21463916 0.4486985 -0.120676324 0.4432191 -0.81759715 -0.005674931 -0.19840847 0.47527516 -0.37694877 -0.10293696 -0.59798646 0.51455665 0.40827486 0.39451653 -0.2526874 -0.44425493 -0.26626128 -0.88527864 -0.05614021 -0.22858517 -0.6675964 0.2161074 0.7362426 0.5598774 0.10025125 0.6349445 -0.17586553 0.3699564 -0.4139523 0.20582318 -0.1227272 0.5875016 -0.44527993 0.22884212 0.7149284 -0.46933413 0.47950563 -0.05093979 -0.49862352 0.9020886 -0.08743047 -0.33269918 0.5823039 0.080056734 -0.26749817 -0.95127976 0.31620932 0.3253677 0.73034465 -0.74223924 -0.13682598 -0.5909213 -0.8121472 -0.73454905 0.61048293 -0.65802336 -0.02904693 -0.24614456 0.54085755 0.4105957 1.0392282 -0.5221623 0.36461636 -0.039978452 0.4260134 -0.3423032 -0.24354608 -0.8411031 -1.1657264 0.2687679 -0.26769665 -0.884585 0.28891465 -0.7458539 0.3642232 -0.24743612 0.0031768903 -0.7257192 0.4173735 -0.35108495 -0.18774772 0.4265459 -0.713623 0.5252607 0.028940428 0.05801499 -0.6775969 0.20532511 0.5258763 -0.38900095 0.4940399 0.03962406 0.37302366 -0.14550546 0.07134978 0.7230775 0.13704634 -0.1978339 0.03692273 -0.4505918
garlic -0.51208174 0.35948414 -0.119575776 -0.2037542 0.09585708 0.4973337 -0.66983753 0.23542488 -1.2833017 -0.66823065 -0.5538414 0.48872188 -0.14490995 0.9163511 0.36397555 -0.13362074 -0.57189745 -0.95252764 -0.65282214 0.22729413 -0.19786572 0.12426568 0.513296 -0.5543517 0.40990606 0.17687857 0.31939644 -0.29381335 -0.27555823 0.040472552 -0.5099392 0.12450121 -0.5158764 0.17982073 0.29757774 -0.1423604 0.6198095 -0.30167624 -0.09431167 -0.15122399 -0.019091723 0.16712438 0.6889549 -0.5092185 -0.16938297 -0.59986794 -0.10589518 0.41273963 0.39082554 -0.30573013 -0.018279057 -0.53519505 -0.14605774 -0.014208428 0.021763744 -0.4489594 0.21861494 -0.2588909 -0.2838656 0.6795831 0.30599892 -0.31534556 0.056468032 0.5999027 0.2880251 0.22610386 0.33445877 -0.06528651 -0.6079176 0.12230294 -0.31229484 -0.4384532 0.40520182 -0.11193374 -0.087181844 0.52940816 -0.3912674 0.015282637 0.108394586 -0.0019896077 0.7536673 -0.30816212 -0.46167842 0.22029965 -0.33787513 -0.058358423 -0.21876808 0.14205717 0.6585542 -0.071640104 0.061141234 0.44030064 0.804229 -0.4891426 0.31414473 0.019297894 0.053670622 0.12512186 -0.22683193 -0.41061595
http://www.co-ode.org/ontologies/pizza/pizza.owl#VegetableTopping -0.24804144 0.1390882 0.0858939 -0.21995866 -0.136265 -0.066929 0.12134789 -0.25324196 -0.37197632 -0.2561211 -0.4941047 -0.043727748 0.1606587 -0.0716676 0.27214125 -0.23290972 0.22260027 -0.61633027 -1.2213024 -0.33032647 -0.2676117 0.42768118 -0.09524128 0.50500834 0.30402693 -0.11365013 -0.36876816 0.2144015 0.16842699 -0.69920003 -0.43615648 -0.07250885 0.034878407 0.45878986 -0.007292432 -0.15932555 -0.018642021 -0.6875356 0.49315846 0.22744673 0.21307604 -0.0069549284 -0.13706341 -1.1585926 0.10549346 0.36975345 -0.01882535 0.6784855 0.7896059 -0.37627158 0.25677282 -0.7652705 -0.32782853 -0.06954159 0.40392324 -0.137599 0.41179973 -0.06486436 0.07661173 -0.24203067 -0.6840006 -0.4522164 -0.12360459 0.15662456 0.7529774 -0.2691317 0.09720133 -0.1181212 -0.21495858 -0.9179527 0.40451062 -0.37593466 0.29268909 0.16769688 0.2476171 0.16065636 0.1908494 -0.001514657 -0.8542454 -0.027639452 0.79447746 -0.008655723 -0.8644952 0.12428935 -0.7024712 0.3351579 -0.22378846 -1.0488039 0.062265117 0.2867348 0.11284494 0.63720924 0.57868433 0.021946514 0.3148153 -0.9607173 0.3461375 0.034130603 -0.6501504 0.2001827
green 0.20220786 -0.33965644 -0.34029245 -0.446465 0.16998528 0.026854377 -0.10714147 0.15303637 -0.5381666 -0.6168507 -0.15621634 0.41871673 0.45681313 0.69859236 0.54821974 -0.29766756 0.08882748 -0.50252855 -0.30838558 -0.009731249 -0.22657485 -0.4200989 0.24901131 0.69627744 0.5260756 -0.08361069 -0.059193395 0.1446016 -0.9430996 -0.6934476 -0.6090117 0.4905267 -0.45427707 -0.19859074 0.26304537 -0.25250506 0.79389304 -0.070121534 -0.73123026 0.7758124 0.33062074 -0.05622682 0.49698806 -0.26910353 0.47034013 -0.63566506 -0.11447602 0.61523676 1.1039836 -0.13178492 0.5843958 -0.026902923 -0.55273116 -0.2397628 0.7238181 -0.7881398 0.6035056 0.31078425 -0.17187783 -0.17397365 0.16825187 -0.12046432 -0.028171465 -0.018784838 0.48026842 -0.19238706 0.2689199 -0.33430934 -0.92192 -0.41226327 0.72549194 0.018653335 0.05395652 -0.19880693 0.36150125 0.47730276 -0.02557811 -0.5146638 0.35307288 -0.73190904 -0.37036765 -0.24025407 -0.20815565 -0.33013725 -0.75255036 0.2773666 -0.11282291 0.31029794 0.8918733 0.3273587 0.3540132 0.25812155 0.5650524 -0.22309601 0.41391468 -0.3959809 -0.14072935 -0.32210913 -0.20680389 0.19346508
rosa -0.05902572 0.80705416 -0.27296594 0.28610998 -0.45810342 0.33582938 0.05131488 0.81865954 -0.4934973 -1.0832703 -0.5193462 0.47502786 0.036223866 0.35697475 0.48599482 -0.60631627 -0.39188793 -0.17520288 0.1059597 0.16106446 -0.22542962 -0.13240424 0.38551056 0.24495251 0.4887888 0.016642401 -0.062498864 0.009627354 -0.096413806 -0.49532044 -0.14869082 0.16337322 -0.02716049 -0.037735596 -0.2650665 -0.06688375 0.33390614 0.1225557 -0.33656904 0.41619214 0.4228542 0.690358 0.45901012 -0.5008515 -0.056050085 -0.1374406 -0.47487947 0.67945564 0.7283956 -0.019824315 0.4173161 -0.048214182 -0.46664897 0.25684473 -0.28251356 0.03202003 0.16489673 0.07974416 -0.44109064 0.44551742 0.87978333 0.49475056 -0.029175684 0.1017619 0.14480135 0.295143 -0.015886607 -0.38871187 -0.2923534 -0.27675617 0.77352923 0.41650388 -0.19080342 -0.17836212 0.30281013 0.17079516 0.072430305 -0.65681034 0.34672326 -0.80939835 -0.18262067 0.10056339 -0.15761271 -0.0885522 0.004219458 0.29110086 -0.033163708 -0.25435576 -0.22815304 -0.018764244 -0.2064765 0.71611387 -0.1546009 0.08505953 0.86062896 0.34049925 -0.1203262 0.28581735 -0.16177276 0.019781489
cheesetopping 0.16730024 0.43340176 0.0020376896 0.18643828 -0.4813765 -0.007834037 -0.42096475 0.7699803 0.26469633 -0.34008998 -0.018356021 0.56391764 0.02726047 -0.1528663 0.621596 -0.9082152 -0.5272832 -0.080812074 -0.1381181 -0.04607597 0.1133762 0.48525548 0.62692684 -0.06336841 0.37076643 -0.33286807 -0.4321309 0.09392209 -0.3680312 -0.41679686 0.08952822 -0.3636501 0.20640635 -0.031791806 -0.17850268 -0.21078749 0.37353376 0.19499277 -0.15080343 0.56057674 0.6030604 0.49219987 0.36888796 -0.5607922 0.08457587 -0.29340973 -0.2355356 0.69998544 0.95010823 -0.77302295 0.22679059 -0.1379634 -0.7335854 -0.03465636 -0.27812213 -0.067088716 -0.07196555 0.09286445 -0.5307807 0.82022417 0.6813804 0.5319675 -0.1377012 0.18276809 0.3422961 0.30530474 0.09244948 -0.59485656 0.22171313 -0.53055537 0.52520615 0.12199194 -0.041942477 -0.5264121 0.5339317 -0.5900527 0.46430257 -0.89242214 0.14936945 -0.7796421 -0.46504253 -0.024986004 0.02818283 -0.20217514 -0.45187968 0.46116832 -0.32536224 -0.6898599 -0.484783 0.2587736 -0.21540883 0.35125083 -0.32002223 0.5993821 0.452659 0.41633213 -0.30880785 0.17025378 -0.25181982 -0.004865248
polloadastra -0.10982817 0.42831194 -0.45809552 -0.50909394 -0.009906157 0.595636 -0.22197948 0.54546905 -0.47970113 -0.7389024 -0.91611964 0.751369 -0.07113428 0.63122475 0.3781101 -0.032245003 -0.3296775 -0.4720485 -0.57915753 0.35740176 -0.1483426 -0.1416433 0.36907047 -0.343339 0.5794779 -0.5464534 -0.44041407 -0.15676679 -0.12626381 -0.53195876 -0.72811216 0.24384362 -0.1394018 -0.4149651 -0.12772453 -0.40138096 0.5914361 0.16673665 0.2642894 -0.028070638 0.2694609 0.31192428 0.3444063 -0.8542065 -0.25329545 -0.6694164 -0.17020066 0.261134 0.7744541 -0.12453017 -0.123914815 -0.13960595 0.25367486 0.22621356 -0.5734106 -0.29116955 0.42192468 -0.23035344 -0.56058496 -0.2568507 -0.34045532 -0.022430321 -0.20771419 0.0076622874 0.41750056 0.35554433 0.23188694 -0.41227844 -0.107135296 -0.52685344 0.2247601 0.60813826 0.28930384 -0.037772927 -0.022829676 -0.23574351 -0.1016371 0.15234914 -0.011216659 -0.23533712 0.078908846 -0.47791857 -0.22660705 0.31034437 -0.5078503 0.5328375 -0.41799816 -0.028253837 0.033938672 0.9709836 -0.25240335 0.4194547 0.069856696 -0.28947058 0.84317195 -0.0009629624 -0.018745707 -0.39715672 -0.056796905 -0.44554964
garlictopping -0.47084 0.52026516 -0.08747336 -0.13174215 -0.06778922 0.5330221 -0.5170763 0.36599755 -1.1791373 -0.5695421 -0.57308835 0.77923334 -0.089485906 0.8461812 0.29303887 -0.24648207 -0.62493676 -1.0332303 -0.5212555 0.1543033 -0.33239308 0.05309427 0.54277885 -0.5196906 0.50390196 0.21431911 0.31353253 -0.25184795 -0.33065107 0.1479526 -0.59814405 0.11002508 -0.48406497 0.21874599 0.38067326 -0.21018139 0.58764786 -0.35807893 -0.3132832 0.015055361 0.16126376 0.20771465 0.84528416 -0.47016293 -0.3192423 -0.703955 -0.004192431 0.47339156 0.4763363 -0.55410975 0.04713611 -0.45261446 -0.3906299 0.089125276 -0.08041913 -0.6538408 0.2785287 -0.29959184 -0.26009294 0.58404875 0.49971318 -0.15151413 0.07412959 0.4859892 0.26606578 0.15529816 0.32020766 -0.20863873 -0.6683806 0.08683835 -0.40857238 -0.6585485 0.30431673 -0.0896269 -0.144508 0.43842146 -0.4101971 -0.1255606 0.12140018 0.18117334 0.6893213 -0.26849848 -0.4726434 0.17067286 -0.3270521 -0.09779067 -0.415249 0.26943105 0.7360656 -0.17830102 0.038358606 0.38222092 0.74426943 -0.3962814 0.2581602 0.087075435 0.24897434 0.06496209 -0.29009712 -0.4829967
mare -0.31118056 0.3152515 -0.07143117 0.31447533 0.23392004 1.2844695 -0.2954828 0.5984475 -1.3791475 -0.95361406 -0.6960012 0.8591148 -0.40102962 1.3278219 0.654476 -0.08903018 -0.10647665 -1.231972 -0.5675005 0.4717666 -0.7315678 -0.21457249 0.3176908 -0.069796756 0.5978045 0.4179556 -0.14671159 -0.4947362 -0.1586498 -0.42658997 -0.8218684 -0.09052426 -0.3790313 -0.24211285 0.5059189 -0.53242373 0.2774792 -0.023091037 0.08065656 0.09894764 0.54047257 -0.10331998 0.9211329 -0.6120996 -0.13051593 -0.7554406 -0.21767284 1.0208623 0.4385598 -0.5973384 0.08047637 -0.12793988 -0.41232884 0.018068587 0.21701464 -0.100435555 -0.18962505 -0.27713075 -0.34634247 0.90140533 0.112049766 -0.03965881 0.29598653 0.23404168 -0.0631741 0.42524633 0.02373289 -1.1075263 -0.22575442 -0.5427581 -0.24304472 -0.31919247 -0.042757425 -0.6416031 -0.10694231 0.60895413 -0.2875187 -0.18322721 0.3207785 -0.30186206 0.2521169 -0.30671212 0.16960815 -0.108134635 0.2980288 -0.2760256 -0.24040955 0.1204669 0.21036737 -0.12944494 -0.5320947 0.75387263 0.07030983 -0.5325987 0.6650875 -0.45374534 0.43128362 0.31521952 -0.17344768 -0.5159788
frutti -0.5215684 0.50855345 -0.27024072 0.4387596 0.24817288 0.8524176 -0.21564713 0.6484385 -0.98201793 -1.0797385 -0.70179003 1.062651 -0.29300615 0.93171704 0.35451353 -0.15851626 -0.028896043 -0.9579725 -0.4815296 0.33624676 -0.5141467 -0.3230879 0.29154468 -0.25377706 0.17779246 0.33704752 0.5038286 -0.29134756 -0.12220206 -0.5416092 -0.6612624 -0.34077206 -0.4391816 -0.052748755 0.51438266 -0.7923067 -0.050081793 -0.0037782202 -0.84337807 -0.010751692 0.3252203 0.5166757 0.59718186 -0.69984734 0.36760086 -0.49423474 0.099382974 0.5247556 0.7363032 -0.6521741 0.22409858 -0.30817166 -0.3219312 -0.4265259 0.093464285 -0.6352917 0.3132579 0.023584472 0.20958562 0.78499687 0.16955477 -0.16616783 0.20064186 0.1207251 -0.16768634 0.06992482 -0.27551836 -0.7721995 -0.4509154 -0.5903071 -0.1187943 -0.55616456 0.04138036 -0.6040117 -0.12635839 0.31642625 -0.5256254 0.101128064 0.0015703363 -0.055465862 0.38686916 0.18583289 -0.22357711 -0.14858921 -0.09481563 -0.050156634 -0.16108029 -0.26553473 -0.102814734 -0.03623709 -0.41977915 0.024209933 0.62439823 -0.5289385 0.9620076 -0.3145203 0.15310307 -0.10809581 -0.42422023 -0.5242315
di -0.20270713 0.7212742 -0.35118514 0.20431218 0.40318236 1.0966833 -0.12672657 0.32006037 -1.1405545 -0.9281991 -0.5826373 0.5689896 -0.4558511 0.6879066 0.77292097 -0.70867 -0.25788713 -1.1721473 -0.46122557 0.40529484 -0.53606534 -0.46341178 0.919738 -0.15368904 0.14571543 0.4855384 0.21846792 -0.8219721 -0.20971026 -0.37255034 -0.7406745 0.06642741 -0.3066864 -0.27468857 0.47805482 -0.6695214 0.69373137 -0.40063795 -0.52690643 0.34687176 0.69466156 -0.09779468 0.7935732 -0.87868756 -0.05253193 -0.70287675 0.01573941 0.9892375 0.76636124 -0.07595104 -0.10346861 0.27994853 -0.24205612 0.08338782 0.1715405 -0.1974955 0.07626963 0.0011228526 0.1805374 0.9389325 0.13444489 0.013291269 -0.20068347 0.16722079 0.4755297 0.23782173 -0.4026685 -0.6653513 -0.13397789 -0.711501 -0.26285985 -0.3574923 0.09428866 -0.68659794 0.32571608 0.6096333 -0.047040284 -0.29467815 -0.3873206 -0.061692204 0.57254547 0.15017787 -0.1699711 0.28146413 0.05945736 -0.32043877 -0.05183431 0.33278516 0.32479438 0.110011876 -0.11834063 0.13434577 0.48995966 -0.37298068 0.44637132 -0.32353678 -0.13054204 -0.06548417 -0.67031884 -0.23215789
fourseasons 0.03871907 0.46002182 0.28693804 -0.24046455 -0.21815492 0.48993605 -0.3246643 0.34589502 -0.3362836 -0.45664442 -0.37447086 1.0356933 -0.06006428 0.27895868 0.4082021 -1.0830373 0.14434907 -0.2177255 -0.056766488 0.8805557 -0.057957884 0.06418559 -0.051062785 0.6267528 0.24733742 0.12413097 -0.2709359 0.27091214 -0.13458966 -0.59991264 -0.3718202 -0.0532515 -0.25099316 0.30256143 0.036990575 -0.8881985 0.20304973 0.35859773 -0.25192448 0.56717193 0.2678634 -0.29701054 0.12718414 -0.7452821 0.0118656885 -0.1977596 0.39874244 0.796892 0.48322237 -0.37166974 0.11763669 -0.4485075 -0.4588033 -0.6689063 0.16941337 -0.2763664 0.15032357 -0.31950906 0.028277894 0.2414556 -0.13103665 0.5899708 -0.4786642 0.08369937 -0.0029738112 0.008922244 -0.20531048 -0.84022313 0.12992617 -0.2231883 0.19070198 0.20267771 0.4120641 -0.32144654 0.15132764 -0.047359575 0.27869028 0.0051870225 0.25829554 -0.334925 0.392756 -0.59003836 -0.31760907 0.17797735 -0.46038097 0.4535331 -0.37387836 -0.7877512 -0.23657933 0.7380491 -0.16150676 0.8030222 -0.06769233 0.06685114 0.36192378 -0.2297203 -0.021776678 -0.2503869 0.035809595 -0.30375516
hamtopping -0.34740016 0.5651461 0.06995982 -0.15551238 -0.050828222 -0.43554392 -0.7204485 0.33439 -1.1987394 -0.067978606 0.17341316 0.85548514 0.5388672 0.8987548 0.07605664 -0.93406683 -0.34082347 -1.0112066 -0.40573096 0.06269674 -0.37125617 -0.08067803 0.4108785 0.6944405 0.084963836 -0.23388153 -0.25025326 0.61310846 -0.49131513 0.010356396 -0.6113597 0.41709214 0.058003876 0.7249029 -0.04637894 -0.5331092 0.42853802 -0.67107964 -0.7819816 0.2723093 0.16347255 -0.16331404 0.30939353 0.09669537 -0.07197265 0.11299662 -0.26835614 0.8184291 0.28794765 -0.18441689 0.009585445 -0.7580785 -0.49755785 -0.20461994 0.094636545 -0.29704168 0.041181922 0.46658033 -0.059279434 0.3259882 0.3915006 0.16494212 -0.4518359 -0.026225526 -0.061650377 0.04751734 0.32471392 -0.093427554 -0.5054069 0.35511303 -0.19584213 -0.12599137 0.3622976 -0.19346324 0.20077391 0.2123321 0.19998144 -0.63908076 0.5851847 0.50084287 0.10206379 -0.23548329 -0.80878663 0.43863457 -0.3181136 0.31106418 -0.51930404 0.100240365 0.44483 0.39484984 0.4470858 0.5486413 -0.05073207 -0.17242773 -0.31557745 -0.011010598 0.2234162 0.056252297 -0.46700317 -0.2103914
spice -0.24949983 0.3250922 -0.34549993 -0.37043315 -0.3000836 0.27695864 -0.06849988 0.8313983 -0.29198873 -0.22960143 -0.4976074 0.30416358 -0.017791294 0.5054233 0.21014476 -0.45252562 -0.3904226 -0.63109475 -0.619697 -0.49453217 0.10302119 0.8448127 0.9601145 -0.47085953 0.9063664 -0.27686298 -0.42101416 0.24459307 -0.56293297 0.12025375 -0.6650227 0.16975316 -0.28412953 -0.28976354 0.32270747 -0.42947868 1.1375759 -0.051571164 0.3710914 -0.09695358 0.16665414 0.52082455 0.16978529 -0.36581743 -0.4522661 -0.6318461 -0.26793554 0.173661 1.0893444 -0.4277458 -0.3227031 -0.43797842 -0.31476703 0.4728432 -0.42261767 -0.42516443 0.6817708 0.026779 -0.5362421 0.3977334 0.017557276 0.19229862 0.39188334 0.22424173 0.9246304 0.3962159 0.3022464 -0.17123553 -0.19613214 -0.20973994 0.303083 0.07184259 0.04031224 -0.44018176 0.26159588 -0.75562054 -0.47104165 -0.5079725 0.3366484 0.089468665 -0.11707775 -0.41214854 -0.6250758 0.36735857 -0.4942089 0.8805225 -0.5556737 0.35883737 0.48650873 -0.05308328 0.017102193 0.06316126 0.68188214 -0.034501422 0.05435913 0.65546453 0.1918239 -0.082359836 0.09739552 -0.66464555
mushroomtopping -0.07290905 0.5854774 0.4792127 -0.552492 -0.52355236 0.11562926 -1.1121504 0.5339628 -0.8188357 -0.6555054 -0.2172395 0.62617314 0.46141186 0.6125027 0.34667608 -1.246223 -0.07210741 -0.8465746 -0.1453014 0.46521425 0.023179112 0.3080092 0.07044324 0.24251828 0.18685316 0.09694128 0.06577504 0.55851525 -0.5353634 -0.5233745 0.14492317 0.20076336 -0.43840313 0.8679743 -0.14116351 -0.3387112 0.2895989 0.3321481 -0.0679698 0.19077794 -0.1258975 -0.26379463 0.32561368 -0.1505405 0.047517862 -0.07097946 -0.0225416 0.2811698 0.45529968 -0.172946 0.08516547 -0.79938895 -0.49972 -0.4848444 0.42468375 -0.6734149 -0.11054856 0.20905383 0.09373315 0.3808426 0.29679647 0.30708107 -0.10657721 0.0882566 0.0010996612 -0.13955238 -0.06703669 0.09775983 -0.3001114 0.4724996 0.3941643 -0.10219172 0.5513327 -0.096131794 0.6301097 0.038375136 0.16562255 -0.3949482 0.48837128 -0.110768914 0.632956 -0.054611705 -0.57426965 0.6756947 -0.59855574 0.43352485 -0.38853142 -0.48112512 0.08202927 0.19917326 0.26711315 0.8447201 0.46077815 -0.009945971 0.06626799 0.2109257 0.13789734 0.22238247 0.16298807 -0.48239264
parmezantopping -0.38397464 0.6998895 0.2828684 0.09298778 -0.5316105 -0.10787193 -0.5004437 0.5330474 -1.0785286 -0.6418903 0.020703008 0.4079797 0.23884982 0.45844233 0.6773435 -0.57276213 -0.15775466 -0.37159488 -0.7243582 -0.19461875 0.06400475 0.86121744 0.6992836 0.17318979 0.75494915 -0.21368001 0.12112197 0.41264942 -0.5290855 -0.1307575 -0.19650483 0.10506493 -0.37371823 0.35221645 -0.028987208 -0.16922033 0.3851879 -0.034850895 -0.20913424 0.5309423 -0.33265862 0.42550322 0.54191315 -0.30254808 -0.19804107 -0.42347318 -0.20630455 0.73761755 0.23244129 -0.35293934 -0.14313114 -0.7773435 -0.31072244 -0.23170418 -0.06889156 0.12229415 -0.036868345 0.24804246 -0.332644 0.5735536 1.0716555 -0.020705987 0.052140824 0.6896035 0.11628815 0.27135202 0.16641624 -0.16321959 -0.045532238 -0.041841898 0.28582308 -0.088168114 -0.027022848 -0.103785686 0.5044199 0.14045098 -0.45302033 -0.3698642 0.22474125 -0.53901803 0.112552024 -0.11107264 -0.5565628 0.39160296 0.11711958 0.552348 -0.21731897 0.103386305 0.21337792 -0.10399428 0.48967713 0.3908193 0.4977031 0.49614972 0.0068271775 -0.27613863 -0.15201735 0.4659985 -0.18224624 0.16627494
capertopping 0.065744996 0.14554435 -0.05163416 -0.42742527 -0.7983806 0.2797368 -0.7410177 -0.011470178 -0.5537519 -0.57050997 -0.5814338 0.68816066 0.25317076 0.57808405 0.58454305 -0.8808985 -0.47611392 -0.4026741 -0.25279602 0.60044307 0.45780575 0.15960638 0.033412635 0.08904033 0.041518226 -0.07437272 0.4183397 0.5975984 -0.39104003 -0.13575606 0.0618965 0.21390595 -0.6918533 0.2776574 -0.1959264 -0.21350618 0.18277109 -0.036671486 -0.022650067 0.5241499 0.087774366 0.15496857 0.27697134 -0.35094914 -0.073234335 0.089252576 0.23276402 0.12679954 0.3637421 -0.058965623 0.30416375 -0.9673079 -0.6257838 -0.55890536 -0.089052 -0.5842966 0.42413872 -0.11198851 -0.28270257 0.8808371 0.37921038 0.14156654 -0.28170803 0.63916177 0.1781897 -0.16436055 0.34532863 -0.29263985 -0.64915746 0.1460208 0.13323814 -0.022972975 0.5231779 0.11154405 0.31036285 0.3619788 0.065048344 -0.3307752 0.24416792 -0.27464566 0.5614511 -0.38745075 -0.48199907 0.11453647 -0.14918415 0.16480753 -0.5527007 -0.7096866 0.10994841 0.5358694 0.41123426 0.9165058 0.4968643 0.074005224 0.14619777 0.270928 -0.06292178 -0.17786457 -0.007118427 -0.25519657
